path,0,1,2,3,4,5,6,7,8,9,10,11,12,13,14,15,16,17,18,19,20,21,22,23,24,25,26,27,28,29,30,31,32,33,34,35,36,37,38,39,40,41,42,43,44,45,46,47,48,49,50,51,52,53,54,55,56,57,58,59,60,61,62,63,64,65,66,67,68,69,70,71,72,73,74,75,76,77,78,79,80,81,82,83,84,85,86,87,88,89,90,91,92,93,94,95,96,97,98,99,100,101,102,103,104,105,106,107,108,109,110,111,112,113,114,115,116,117,118,119,120,121,122,123,124,125,126,127,128,129,130,131,132,133,134,135,136,137,138,139,140,141,142,143,144,145,146,147,148,149,150,151,152,153,154,155,156,157,158,159,160,161,162,163,164,165,166,167,168,169,170,171,172,173,174,175,176,177,178,179,180,181,182,183,184,185,186,187,188,189,190,191,192,193,194,195,196,197,198,199,200,201,202,203,204,205,206,207,208,209,210,211,212,213,214,215,216,217,218,219,220,221,222,223,224,225,226,227,228,229,230,231,232,233,234,235,236,237,238,239,240,241,242,243,244,245,246,247,248,249,250,251,252,253,254,255,256,257,258,259,260,261,262,263,264,265,266,267,268,269,270,271,272,273,274,275,276,277,278,279,280,281,282,283,284,285,286,287,288,289,290,291,292,293,294,295,296,297,298,299,300,301,302,303,304,305,306,307,308,309,310,311,312,313,314,315,316,317,318,319,320,321,322,323,324,325,326,327,328,329,330,331,332,333,334,335,336,337,338,339,340,341,342,343,344,345,346,347,348,349,350,351,352,353,354,355,356,357,358,359,360,361,362,363,364,365,366,367,368,369,370,371,372,373,374,375,376,377,378,379,380,381,382,383
image_path,-0.017170446,0.1409276,-0.007875493,0.02687011,-0.038416557,-0.037073895,0.100891925,0.017124265,0.02240394,-0.0006418864,-0.016940806,-0.091353066,0.038457084,-0.0143821165,-0.08436433,-0.010189365,0.06535941,-0.075602464,-0.10658517,-0.015329162,0.021947227,0.04114729,-0.026663996,0.0735596,-0.058407735,0.06104058,-0.0131188175,0.06009886,0.018602133,-0.088807754,0.006876489,-0.014169041,0.051109165,0.07732179,-0.052787706,0.029582793,-0.060278025,0.034282908,-0.028353926,-0.056999203,0.0018666881,-0.06754477,0.011907443,0.011967192,0.06137957,-0.03126709,0.025928905,-0.059709385,-0.021113407,0.00030294477,-0.049117565,-0.0078848535,-0.051478643,-0.027190942,0.0578171,0.04256045,-0.028007893,-0.007778108,0.00844064,-0.0022391567,0.12573177,0.002540946,4.063724e-05,0.081197955,0.0622347,-0.064073324,-0.04616987,-0.026689824,-0.008367699,-0.008589747,-0.043523278,0.014896719,-0.017949317,0.03436847,-0.051298168,-0.088179044,0.01821424,-0.0006758517,-0.026436958,0.002323245,-0.061253536,-0.0039421683,-0.04297006,0.012822108,-0.008848092,-0.010938417,0.055559866,-0.045786254,-0.04164049,-0.0025489735,-0.047621075,-0.039718755,-0.058479942,-0.012491404,-0.040429678,0.024407873,0.03231207,-0.10172473,-0.037184067,0.25358644,0.060670987,0.09182174,0.040544275,-0.051701237,-0.09779266,-0.054920457,0.01052329,0.017277036,-0.049073517,-0.03691744,-0.012638589,-0.016649574,-0.1096668,-0.04155468,0.067107774,-0.04029058,-0.011856474,0.020790415,0.043541305,0.015556996,0.033180375,-0.018871482,0.024799567,0.0007625146,-0.050859183,-0.101847194,-0.009183522,-6.012352e-33,-0.025568396,-0.01607867,-0.02014275,0.14534496,0.08247544,-0.025490167,-0.021599015,-0.007616533,0.009402762,0.11489511,0.07309795,-0.021126138,-0.058995314,0.084383994,0.041915983,-0.0714414,-0.10706749,0.13369313,-0.05244126,-0.0020841346,-0.032874845,0.10046449,-0.023211384,-0.024737818,-0.008536964,0.023199195,-0.01943895,-0.10740387,-0.014745394,-0.022026442,0.05407699,0.049983464,0.058163527,-0.04428876,0.032219734,-0.03212962,-0.0058119437,-0.07668475,0.059130788,-0.021342844,-0.0023184654,-0.089906655,-0.061391626,-0.030191403,0.072954476,0.029536013,0.03696574,0.02541755,-0.042146087,0.023726868,-0.029647581,0.017728282,-0.021399662,-0.020980155,-0.008156466,0.035549477,0.009783469,-0.022320114,-0.0464111,0.07233478,0.081756994,0.09014198,-0.09473163,-0.046769723,0.013831339,-0.040072046,-0.006316164,0.010451422,0.06900513,-0.026192559,-0.1352447,0.0050131646,0.06253628,0.026082974,-0.009239807,0.010889548,-0.02686449,-0.026865376,-0.03266164,0.013305231,-0.052126914,0.010200759,-0.047103938,0.025300296,-0.085138194,0.016700977,0.024648536,-0.09379464,-0.014128168,-0.006993367,-0.06592821,0.02531739,-0.032294624,0.013405693,-0.061111476,2.0293397e-33,-0.003710889,0.0070803626,-0.037966717,0.027920628,0.06686806,0.0037422462,-0.03601999,0.08155611,0.004920494,0.080036364,-0.06020335,0.015247983,-0.005982031,-0.02981793,-0.06407648,0.031044057,0.10728735,-0.00090944266,0.032352224,0.06561478,0.009825028,0.115033224,-0.021323651,-0.059249837,-0.060513794,0.047504093,0.0478848,0.002193461,-0.0378536,-0.04705716,0.034476086,-0.07521398,0.0020774766,0.0012823923,-0.075591326,0.036033094,0.14885737,-0.0059486367,-0.08809659,0.024275407,0.10489708,-0.020615097,0.05045287,0.054232676,-0.030911958,-0.026100857,0.017369688,-0.0020453206,0.0085263215,0.0066635013,-0.053049795,-0.005936599,-0.062414404,0.036580138,0.015812885,-0.0816336,-0.076523185,-0.04334125,0.023039939,-0.0010155308,-0.02409935,0.0240636,-0.124382,0.115697384,-0.009861731,0.012926957,-0.01763061,-0.04836017,-0.080691054,0.021995053,0.03818131,-0.05561031,-0.027483106,0.002871387,0.025111442,-0.037848797,-0.0556808,-0.045475207,-0.010823647,-0.009497213,-0.07485139,-0.04696728,0.012663092,0.027420731,-0.027432136,-0.054553792,0.005453664,0.035250124,0.036654092,-0.025129518,0.0011036239,-0.00862985,-0.050387766,0.051722206,0.006969216,-1.7248853e-08,-0.005931997,0.025356093,0.02325815,-0.08312082,0.058902416,0.01213668,0.039457392,-0.03950681,-0.017117886,0.032338586,0.039872546,0.017408738,-0.008532596,0.085763246,0.06195132,-0.0064056925,-0.017505884,0.11218346,0.03212241,0.018255193,0.049177412,-0.0003869962,0.0015716482,-0.026598353,0.041517347,-0.016838677,-0.020530183,0.05183667,-0.028845124,0.067103356,0.010078004,0.085840866,0.01087715,-0.015575273,-0.03813272,0.044995043,-0.032972354,-0.036765087,0.026747053,0.0016308669,-0.012411018,0.016306577,0.00081437296,0.021462057,0.09538143,0.0237863,-0.04276997,-0.03903726,-0.025272384,0.042084936,-0.03793177,0.040542927,0.049640317,0.065305196,-0.026949668,0.02741525,0.0042528645,-0.028529154,-0.007316983,0.003569641,0.078753725,0.11699603,-0.0035306981,-0.014112853
/home/philipslinux/Documents/trieu_others/smark_picking_saffron/inpainting/dataset_masked/train/images/1000_F_451188858_pjmEN7GSJSdjWsx9tC9AXadiTmrXWozK_jpg.rf.5fde5089cd3efb70664c131ca71e7e12.jpg,0.058876142,-0.0675718,-0.052057486,0.06982193,0.03153727,0.059669726,-0.03891301,-0.054006677,0.026737215,-0.039337557,0.042695075,-0.099678285,0.05466125,-0.0659372,0.017531827,0.0323251,-0.07300259,-0.057282615,-0.015445825,0.042882107,0.06432974,0.036128856,0.022684654,0.05998187,0.022425104,-0.04435757,-0.070421256,0.00013603953,-0.00044334301,-0.038495623,-0.008437219,0.06569464,0.0245298,-0.00735677,0.09996742,-0.030276317,-0.04819554,0.05236711,0.050056357,0.043210726,0.05014571,-0.042053167,0.022236615,-0.0052204374,-0.026412873,-0.00046973987,-0.1064515,-0.009508355,0.03610855,-0.011251122,0.013059263,-0.010944352,-0.16521324,0.04935442,0.048301715,-0.07200519,-0.06893546,0.00046585835,-0.004350347,0.07160463,0.028549742,-0.06803888,-0.01207228,-0.03874645,-0.02951067,-0.027339146,-0.13871802,-0.04500927,0.05472463,-0.011896993,0.059728783,0.05579329,0.030669605,0.058672164,-0.079595186,-0.00293562,-0.025155492,0.010753659,-0.02448846,-0.0092012845,-0.07424648,-0.022853622,-0.029270206,0.021221837,0.021166194,0.07781136,0.004235383,0.03162226,0.00043970105,-0.0061510657,0.0007793823,-0.013326146,0.0066062566,-0.020946335,-0.07080159,-0.06269132,0.01037686,-0.023367302,-0.025164362,0.013622527,0.0033274447,-0.019176295,0.10445652,0.017353812,-0.02015998,0.017612519,-0.038618978,-0.08102081,-0.069976486,-0.013283032,-0.03002906,-0.088449866,0.03779878,-0.07185297,-0.08859431,-0.015755426,-0.049952433,-0.033663508,-0.0031025384,0.02421354,-0.025471851,-0.06083047,0.030936083,-0.04868084,-0.03986488,-0.01946865,-0.07041298,1.2739215e-33,0.0025561627,-0.04554465,0.057936344,0.043052725,-0.0043062484,-0.0553347,-0.047861595,0.0038154852,-0.102693245,-0.011325345,-0.009003472,0.028949473,-0.0046044304,-0.022821883,0.000678801,-0.06251577,0.045161776,-0.051624972,-0.0016156733,0.005822731,-0.0020871346,0.083521284,-0.05528457,-0.0152747575,-0.044199295,-0.13018686,0.014475595,-0.0361273,-0.050062984,0.020763747,0.08517498,-0.036615405,0.05810113,0.09312246,-0.05369396,-0.019322166,-0.03215757,-0.10963644,-0.0008117283,-0.0038300438,0.025685148,0.052018996,0.006574354,0.08709886,0.010527287,0.002247995,0.035854015,0.016105263,0.07461437,0.028456733,-0.029226474,0.061919563,-0.024159113,0.015958095,-0.048186105,-0.012959452,0.007265294,-0.02299366,-0.025660345,0.06600931,0.022124888,0.008843443,-0.058342125,-0.1300234,0.057795536,0.06467163,-0.10199821,0.006032052,0.032369602,-0.0030822759,0.0006830802,0.002861176,-0.010446339,-0.032414842,0.043629017,0.05933222,0.06870076,0.042607073,0.06374259,0.013580776,0.016094418,0.023360128,-0.030961752,0.06338213,-0.08064202,-0.02111853,-0.017582051,0.055314984,-0.031818077,-0.031388864,-0.021201067,-0.004283672,0.0398761,-0.03405091,-0.06016864,-1.8239485e-33,-0.042370927,0.001325249,0.041717954,0.0447536,0.018451722,0.13108009,0.06666526,-0.050459255,0.0148272365,0.08248382,0.063678026,0.113721505,0.07296838,-0.109745026,0.034341786,-0.037451092,0.155796,0.08285,-0.0013114495,0.016899588,-0.0480469,0.09664212,-0.061596375,-0.061633475,-0.12243594,0.079746105,0.026770422,-0.077901155,-0.01830518,0.02458362,0.022548947,-0.115587555,-0.021076407,0.025921749,-0.055306952,-0.08671619,0.044558756,-0.022543248,-0.05357234,0.043689538,0.034296885,-0.020771738,0.06957662,0.111116625,0.07112746,-0.103843726,-0.07374726,0.06985676,0.003555342,-0.045377705,-0.08098841,-0.032880906,0.0077292845,-0.026531884,0.010963281,-0.034662932,0.027941808,-0.0012131036,0.019337686,-0.020593556,0.057777293,0.023106838,-0.05419722,0.061426707,0.0041951155,0.03202425,-0.03703754,0.009646511,-0.099342,-0.027607428,-0.038750526,0.05762629,0.051297624,-0.029140772,0.032878686,0.014082428,0.00969436,-0.051527143,0.0127692325,0.014703528,0.00095760025,0.0019973004,0.0012351109,-0.0049294885,0.03279297,0.0084722405,0.025443273,-0.018701216,0.11300897,0.041118827,-0.07175715,0.0864266,0.082019925,-0.000832843,0.08910706,-1.9549557e-08,0.023969341,-0.038468,0.10250299,-0.05616625,0.03294873,-0.071387716,-0.017068068,-0.0021759227,0.03456922,0.04546985,0.050327946,0.106066294,-0.014081527,-0.059704997,0.01925554,0.0070208036,0.07810911,0.0381331,0.024391023,0.011957308,-0.00022494301,0.019765403,0.0070308982,-0.058419965,-0.016460357,-0.020342076,-0.020434855,0.0039301473,-0.035971366,-0.009256283,0.10121589,-0.057068866,0.039384928,-0.049012557,-0.0108725615,-0.013782754,-0.029664358,0.025101032,-0.025493618,0.018651003,0.0718732,-0.10889995,0.06134778,0.055505984,0.03811087,0.090237394,0.019191371,-0.043742474,-0.061873667,-0.01042172,-0.017592708,0.03741065,-0.0103907455,-0.03456265,-0.060749426,-0.07053153,0.012199917,-0.01900789,0.045115646,0.03176872,-0.012605961,0.024869636,0.053014442,0.07556962
/home/philipslinux/Documents/trieu_others/smark_picking_saffron/inpainting/dataset_masked/train/images/images-2022-08-07T114852-795_jpg.rf.8302e936e91a848e98cfaec4300c7e87.jpg,0.05768324,-0.05461968,-0.05068907,0.07171226,0.033616133,0.05358445,-0.050494887,-0.05292531,0.022878883,-0.0440103,0.052381113,-0.09087955,0.044205006,-0.06225052,0.02127808,0.03741568,-0.07382645,-0.049749576,-0.007816463,0.04304418,0.07315904,0.030087436,0.021076405,0.052415233,0.0190486,-0.0133683765,-0.071679175,0.016960321,-0.0027823092,-0.038924713,-0.00068897137,0.06770133,0.0028589547,-0.023513604,0.084189445,-0.044101004,-0.040094893,0.06402533,0.0537575,0.02422097,0.043614402,-0.04949578,0.02432395,-0.001379524,-0.027259586,0.0042267377,-0.09910586,-0.02350857,0.043608468,-0.0056670387,0.0013383091,-0.020845227,-0.1556703,0.04119954,0.04367222,-0.0390382,-0.07630795,0.0025012258,0.0074478574,0.07340417,0.037001234,-0.048031546,-0.024734275,-0.028245654,-0.020551631,-0.038723193,-0.1418819,-0.041001566,0.04275181,-0.02369022,0.07050299,0.05812401,0.030659648,0.045097545,-0.06824198,-0.003739562,-0.024883008,0.016040264,-0.02122112,-0.00925854,-0.0658955,-0.030774342,-0.0292589,0.031960227,0.017331125,0.0766663,0.001784844,0.016525773,-0.008018495,-0.015114472,0.00513753,-0.009555074,0.0056880107,-0.019442068,-0.07028818,-0.06202657,0.010769431,-0.021790804,-0.032942757,0.025885342,0.005473229,-0.02075174,0.085059464,0.006678657,0.0038644832,-0.0032332332,-0.039491475,-0.077780984,-0.06325449,-0.020396508,-0.011253439,-0.07453938,0.037401434,-0.05799644,-0.0814444,0.0004164691,-0.04977256,-0.032332275,-0.007655903,0.017482942,-0.026190149,-0.06515559,0.007606847,-0.05445012,-0.02709941,-0.023321945,-0.06839196,9.792668e-34,-0.0065226606,-0.04626824,0.057619687,0.048701487,0.00083793676,-0.055771686,-0.06343379,0.0011758342,-0.10351797,-0.00902236,-0.012522133,0.0001614053,-0.012683612,-0.024189433,0.004825159,-0.07651552,0.037733383,-0.04261745,0.0034454975,0.0050083543,0.008799205,0.10200575,-0.045941208,-0.015438632,-0.026114412,-0.13096774,0.020499162,-0.048125237,-0.041091897,0.029950397,0.08772963,-0.041687194,0.06898621,0.10110181,-0.05195179,-0.038105555,-0.041319095,-0.11442302,-0.012693745,0.0029640382,0.032800317,0.054484956,0.0044819377,0.09324019,0.0132191405,-0.0043626144,0.04552729,0.010807436,0.081285186,0.02323935,-0.026267663,0.0571333,-0.017344212,0.030560805,-0.047752388,-0.012237348,0.015244331,-0.026788987,-0.02034496,0.06543885,0.028660811,0.01656663,-0.056939926,-0.1283911,0.055385053,0.06400588,-0.10583572,-0.004645843,0.03340221,-0.0011766285,0.0027057047,-0.002265617,0.004674733,-0.01668685,0.04928927,0.04261131,0.06594599,0.040744543,0.07901488,-0.0027649552,0.026683308,0.022530155,-0.026949225,0.058494154,-0.09228982,-0.04204844,-0.02164214,0.0632486,-0.051666863,-0.011885742,-0.038351476,0.0018921292,0.032748446,-0.028458482,-0.03950241,-1.5600827e-33,-0.03670226,-0.0017420582,0.05158497,0.04619588,0.02607636,0.11822532,0.07227911,-0.05262972,0.021850618,0.09438265,0.06772204,0.106576085,0.09547039,-0.096860014,0.058106396,-0.037696056,0.16536373,0.09294493,0.00093834917,0.008930472,-0.039280247,0.09877355,-0.058968376,-0.07507839,-0.110925406,0.07881954,0.0330939,-0.0745782,-0.03835663,0.021468928,0.0058846013,-0.117812626,-0.037324063,0.015324721,-0.052677702,-0.08875093,0.03294193,-0.032696806,-0.069345474,0.031192144,0.030007543,-0.017277148,0.059766058,0.122502714,0.07552459,-0.10049457,-0.059399683,0.07180663,0.0017568305,-0.06502007,-0.07826089,-0.05482043,0.008650162,-0.011081754,0.0025611639,-0.036565326,0.022485387,-0.00831669,0.022790594,-0.02160123,0.06560264,0.014736176,-0.054408453,0.054875858,0.0056578685,0.034478776,-0.03898841,0.019629104,-0.101683505,-0.015565656,-0.054246455,0.060988393,0.042761173,-0.024469968,0.027874239,0.018502606,0.0138181,-0.045682494,0.020168982,0.011262541,-0.0037448208,-0.0028580255,0.0073865345,-0.0038765494,0.024352947,-0.0014217888,0.00953693,-0.021485988,0.104723066,0.030443102,-0.08081,0.08637085,0.06673508,-0.006804684,0.095921695,-1.9911834e-08,0.022547835,-0.04026163,0.10375341,-0.056244355,0.030446861,-0.079811744,-0.01363224,0.00010798978,0.03753016,0.048132453,0.02941052,0.111331046,-0.004026156,-0.06465158,0.0076605855,0.020666024,0.08956091,0.033493247,0.016529594,0.0035351443,-0.0007120257,0.010901001,0.017328402,-0.04449977,-0.0336429,-0.0071531166,-0.018777622,-0.0005509486,-0.03319696,-0.003346193,0.10088172,-0.05657832,0.03605979,-0.051962595,-0.02414065,-0.027552465,-0.030850071,0.032453176,-0.017941132,0.0143879475,0.07387821,-0.09869263,0.06298965,0.074905165,0.046909265,0.08350444,0.036131635,-0.043474633,-0.059112933,-0.0088133495,-0.0004289482,0.031149892,-0.0043012514,-0.029165206,-0.06788721,-0.08771292,0.0053665857,-0.012571753,0.020379718,0.03713933,0.0019793846,0.01925157,0.05479311,0.0799579
/home/philipslinux/Documents/trieu_others/smark_picking_saffron/inpainting/dataset_masked/train/images/240_F_467509272_bAIsmTDHgerv0vs1iqANG9I9RAHIOIHI_jpg.rf.712de300b4d5c271031a2b2fbd273840.jpg,0.053674713,-0.049620222,-0.023089634,0.078413,0.028023971,0.08950225,-0.054965414,-0.026569325,0.026824431,-0.01812171,0.041024312,-0.07211713,0.03063843,-0.059996367,0.0045931395,0.042409,-0.07342626,-0.053677514,-0.052498903,0.024304526,0.0712173,0.033491325,0.037984245,0.06088548,0.009642048,-0.030037096,-0.0572876,-0.027831879,-0.016251579,-0.04605715,-0.021999458,0.07898466,0.023532687,-0.015194715,0.102329984,-0.0053693093,-0.061171975,0.054854594,0.06008968,0.06020794,0.02610917,-0.05536936,0.021463724,-0.013599581,-0.0036165703,-0.012045819,-0.077484086,-0.022199592,0.07000692,-0.009347717,-0.0010443445,-0.0012215805,-0.15420163,0.04057676,0.04411325,-0.08992519,-0.06382474,-0.04173125,0.006688626,0.0708391,0.02815319,-0.046596777,-0.0036909904,-0.013099917,-0.05675662,-0.02910578,-0.1279717,-0.032262437,0.038995415,0.010066782,0.08368334,0.07523752,0.03081558,0.06825531,-0.070107,0.0007716891,-0.017222505,-0.004681218,-0.02061365,-0.013671334,-0.05975878,-0.022767717,-0.015542558,0.02840909,0.0256899,0.058182538,-0.02992262,0.033137705,-0.01195488,-0.0021457723,-0.024077678,0.012413314,0.009460697,-0.024590096,-0.086830616,-0.052072324,0.01940464,-0.053700037,-0.046268575,0.028933903,0.032632377,-0.044563502,0.0789731,0.03287494,-0.01709505,-8.229498e-05,-0.027871445,-0.063600354,-0.09094308,-0.03376567,-0.016879253,-0.0730813,0.035825625,-0.07230833,-0.08130697,-0.015117844,-0.07269018,-0.042494487,-0.0013077654,0.037857648,-0.031061362,-0.043475013,0.031092593,-0.036079895,-0.036759567,-0.008596159,-0.08440192,1.0248514e-33,0.015059197,-0.041472998,0.06337985,0.048104968,0.0003902888,-0.08044624,-0.043936122,-0.001249683,-0.1047223,-0.0046017184,-0.011206457,0.015346981,-0.0024951654,-0.035358373,0.030189937,-0.06085679,0.048868977,-0.031664573,-0.0036544448,-0.013627871,-0.006719839,0.06557967,-0.041114885,-0.022949763,-0.051879592,-0.10005768,0.0213649,-0.027123826,-0.056098785,0.01288918,0.0768174,-0.035423364,0.05738196,0.07976868,-0.034694146,-0.045014683,-0.008789792,-0.119682096,0.001845996,-0.011279885,0.049308423,0.05393936,0.014348183,0.11257543,0.019354077,0.020855598,0.029201487,-0.020405538,0.092131995,0.051187903,-0.0013955206,0.06605524,-0.018757695,0.04144344,-0.04760797,-0.019019432,0.00932721,-0.014167933,-0.0056986255,0.09195467,0.041418854,0.0028645424,-0.03775346,-0.14623709,0.054663412,0.06584496,-0.09385437,0.009220524,0.029092558,-0.014276746,0.0067528305,0.009637196,-0.012977543,-0.0007142971,0.05083562,0.055482563,0.041128594,0.040952418,0.065944895,0.021880914,0.040582936,0.025463251,-0.04030021,0.063563496,-0.0716149,-0.035256125,-0.0014909541,0.06243888,-0.031183241,-0.044680692,-0.006631438,-0.032732073,0.057288144,-0.0336575,-0.08231567,-1.570921e-33,-0.05521788,0.008145872,0.03508963,0.038937774,0.034709904,0.100472346,0.062109735,-0.042499416,-0.0049648564,0.070588075,0.050898965,0.12208269,0.112661056,-0.09756242,0.041126452,-0.029448424,0.14037324,0.11348676,0.022143114,-0.019862698,-0.047276754,0.08266545,-0.061258953,-0.057970125,-0.099454425,0.056450207,0.014470686,-0.08870525,-0.00976919,0.022985639,0.041286547,-0.116261564,-0.03963752,0.06410898,-0.04999681,-0.09231142,0.034333255,-0.015735306,-0.052092306,0.028938409,0.042383805,-0.062401913,0.063129395,0.09280827,0.05133974,-0.07511529,-0.07793338,0.06578976,-0.010261418,-0.0010925622,-0.06192385,-0.050467137,0.009549969,-0.036809888,-0.0069516134,-0.030897543,0.018708965,-0.0086297,0.03802995,-0.010746598,0.056748986,0.024729582,-0.044474002,0.03641393,-0.0110847475,0.0633575,-0.05100293,0.0044941525,-0.11937926,-0.047619462,-0.049029283,0.02816748,0.011835279,-0.0013392005,0.040433906,0.0041102017,0.013621134,-0.04429665,0.032565404,0.027194593,-0.032650266,-0.021605657,0.019294387,0.0010206229,0.030063925,0.0014730659,0.03737366,-0.051361553,0.12680523,0.06835823,-0.042857613,0.053844135,0.09329781,-0.006762548,0.08101551,-1.9391301e-08,0.012308743,-0.047541898,0.09507232,-0.06553063,0.05303057,-0.09857405,-0.015276297,-0.0002172637,0.027300725,0.03855496,0.049799692,0.08263319,-0.02383882,-0.026216682,0.001911509,-0.0085363835,0.10303501,0.04079795,0.027977489,0.01675889,0.008043509,0.024092223,0.02414746,-0.056508068,0.0026939632,-0.015147455,-0.030942807,0.005027747,-0.038661316,-0.020662948,0.106693216,-0.03320239,-0.0007271774,-0.035170905,-0.016653532,-0.0050773323,-0.031432565,0.024448363,-0.032421038,0.017872846,0.04238634,-0.1205263,0.05209974,0.054118335,0.03088392,0.067008354,-0.004123621,-0.04438881,-0.051591735,-0.015304241,-0.014609406,0.030353049,-0.010192947,-0.04688063,-0.044326767,-0.105987675,0.030677067,-0.05733962,0.04389191,0.03741069,0.011434492,0.020568494,0.060964618,0.05298656
/home/philipslinux/Documents/trieu_others/smark_picking_saffron/inpainting/dataset_masked/train/images/1000_F_464711911_Y1UWL6VDqqoIOdBRxkcAnzNnJ2AK91la_jpg.rf.e1b0ce68e2100cc27d7717ab1ec1270f.jpg,0.058876142,-0.0675718,-0.052057486,0.06982193,0.03153727,0.059669726,-0.03891301,-0.054006677,0.026737215,-0.039337557,0.042695075,-0.099678285,0.05466125,-0.0659372,0.017531827,0.0323251,-0.07300259,-0.057282615,-0.015445825,0.042882107,0.06432974,0.036128856,0.022684654,0.05998187,0.022425104,-0.04435757,-0.070421256,0.00013603953,-0.00044334301,-0.038495623,-0.008437219,0.06569464,0.0245298,-0.00735677,0.09996742,-0.030276317,-0.04819554,0.05236711,0.050056357,0.043210726,0.05014571,-0.042053167,0.022236615,-0.0052204374,-0.026412873,-0.00046973987,-0.1064515,-0.009508355,0.03610855,-0.011251122,0.013059263,-0.010944352,-0.16521324,0.04935442,0.048301715,-0.07200519,-0.06893546,0.00046585835,-0.004350347,0.07160463,0.028549742,-0.06803888,-0.01207228,-0.03874645,-0.02951067,-0.027339146,-0.13871802,-0.04500927,0.05472463,-0.011896993,0.059728783,0.05579329,0.030669605,0.058672164,-0.079595186,-0.00293562,-0.025155492,0.010753659,-0.02448846,-0.0092012845,-0.07424648,-0.022853622,-0.029270206,0.021221837,0.021166194,0.07781136,0.004235383,0.03162226,0.00043970105,-0.0061510657,0.0007793823,-0.013326146,0.0066062566,-0.020946335,-0.07080159,-0.06269132,0.01037686,-0.023367302,-0.025164362,0.013622527,0.0033274447,-0.019176295,0.10445652,0.017353812,-0.02015998,0.017612519,-0.038618978,-0.08102081,-0.069976486,-0.013283032,-0.03002906,-0.088449866,0.03779878,-0.07185297,-0.08859431,-0.015755426,-0.049952433,-0.033663508,-0.0031025384,0.02421354,-0.025471851,-0.06083047,0.030936083,-0.04868084,-0.03986488,-0.01946865,-0.07041298,1.2739215e-33,0.0025561627,-0.04554465,0.057936344,0.043052725,-0.0043062484,-0.0553347,-0.047861595,0.0038154852,-0.102693245,-0.011325345,-0.009003472,0.028949473,-0.0046044304,-0.022821883,0.000678801,-0.06251577,0.045161776,-0.051624972,-0.0016156733,0.005822731,-0.0020871346,0.083521284,-0.05528457,-0.0152747575,-0.044199295,-0.13018686,0.014475595,-0.0361273,-0.050062984,0.020763747,0.08517498,-0.036615405,0.05810113,0.09312246,-0.05369396,-0.019322166,-0.03215757,-0.10963644,-0.0008117283,-0.0038300438,0.025685148,0.052018996,0.006574354,0.08709886,0.010527287,0.002247995,0.035854015,0.016105263,0.07461437,0.028456733,-0.029226474,0.061919563,-0.024159113,0.015958095,-0.048186105,-0.012959452,0.007265294,-0.02299366,-0.025660345,0.06600931,0.022124888,0.008843443,-0.058342125,-0.1300234,0.057795536,0.06467163,-0.10199821,0.006032052,0.032369602,-0.0030822759,0.0006830802,0.002861176,-0.010446339,-0.032414842,0.043629017,0.05933222,0.06870076,0.042607073,0.06374259,0.013580776,0.016094418,0.023360128,-0.030961752,0.06338213,-0.08064202,-0.02111853,-0.017582051,0.055314984,-0.031818077,-0.031388864,-0.021201067,-0.004283672,0.0398761,-0.03405091,-0.06016864,-1.8239485e-33,-0.042370927,0.001325249,0.041717954,0.0447536,0.018451722,0.13108009,0.06666526,-0.050459255,0.0148272365,0.08248382,0.063678026,0.113721505,0.07296838,-0.109745026,0.034341786,-0.037451092,0.155796,0.08285,-0.0013114495,0.016899588,-0.0480469,0.09664212,-0.061596375,-0.061633475,-0.12243594,0.079746105,0.026770422,-0.077901155,-0.01830518,0.02458362,0.022548947,-0.115587555,-0.021076407,0.025921749,-0.055306952,-0.08671619,0.044558756,-0.022543248,-0.05357234,0.043689538,0.034296885,-0.020771738,0.06957662,0.111116625,0.07112746,-0.103843726,-0.07374726,0.06985676,0.003555342,-0.045377705,-0.08098841,-0.032880906,0.0077292845,-0.026531884,0.010963281,-0.034662932,0.027941808,-0.0012131036,0.019337686,-0.020593556,0.057777293,0.023106838,-0.05419722,0.061426707,0.0041951155,0.03202425,-0.03703754,0.009646511,-0.099342,-0.027607428,-0.038750526,0.05762629,0.051297624,-0.029140772,0.032878686,0.014082428,0.00969436,-0.051527143,0.0127692325,0.014703528,0.00095760025,0.0019973004,0.0012351109,-0.0049294885,0.03279297,0.0084722405,0.025443273,-0.018701216,0.11300897,0.041118827,-0.07175715,0.0864266,0.082019925,-0.000832843,0.08910706,-1.9549557e-08,0.023969341,-0.038468,0.10250299,-0.05616625,0.03294873,-0.071387716,-0.017068068,-0.0021759227,0.03456922,0.04546985,0.050327946,0.106066294,-0.014081527,-0.059704997,0.01925554,0.0070208036,0.07810911,0.0381331,0.024391023,0.011957308,-0.00022494301,0.019765403,0.0070308982,-0.058419965,-0.016460357,-0.020342076,-0.020434855,0.0039301473,-0.035971366,-0.009256283,0.10121589,-0.057068866,0.039384928,-0.049012557,-0.0108725615,-0.013782754,-0.029664358,0.025101032,-0.025493618,0.018651003,0.0718732,-0.10889995,0.06134778,0.055505984,0.03811087,0.090237394,0.019191371,-0.043742474,-0.061873667,-0.01042172,-0.017592708,0.03741065,-0.0103907455,-0.03456265,-0.060749426,-0.07053153,0.012199917,-0.01900789,0.045115646,0.03176872,-0.012605961,0.024869636,0.053014442,0.07556962
/home/philipslinux/Documents/trieu_others/smark_picking_saffron/inpainting/dataset_masked/train/images/images-2022-08-07T114849-819_jpg.rf.76557cc7e1661b02d807374377ff97bf.jpg,0.058876142,-0.0675718,-0.052057486,0.06982193,0.03153727,0.059669726,-0.03891301,-0.054006677,0.026737215,-0.039337557,0.042695075,-0.099678285,0.05466125,-0.0659372,0.017531827,0.0323251,-0.07300259,-0.057282615,-0.015445825,0.042882107,0.06432974,0.036128856,0.022684654,0.05998187,0.022425104,-0.04435757,-0.070421256,0.00013603953,-0.00044334301,-0.038495623,-0.008437219,0.06569464,0.0245298,-0.00735677,0.09996742,-0.030276317,-0.04819554,0.05236711,0.050056357,0.043210726,0.05014571,-0.042053167,0.022236615,-0.0052204374,-0.026412873,-0.00046973987,-0.1064515,-0.009508355,0.03610855,-0.011251122,0.013059263,-0.010944352,-0.16521324,0.04935442,0.048301715,-0.07200519,-0.06893546,0.00046585835,-0.004350347,0.07160463,0.028549742,-0.06803888,-0.01207228,-0.03874645,-0.02951067,-0.027339146,-0.13871802,-0.04500927,0.05472463,-0.011896993,0.059728783,0.05579329,0.030669605,0.058672164,-0.079595186,-0.00293562,-0.025155492,0.010753659,-0.02448846,-0.0092012845,-0.07424648,-0.022853622,-0.029270206,0.021221837,0.021166194,0.07781136,0.004235383,0.03162226,0.00043970105,-0.0061510657,0.0007793823,-0.013326146,0.0066062566,-0.020946335,-0.07080159,-0.06269132,0.01037686,-0.023367302,-0.025164362,0.013622527,0.0033274447,-0.019176295,0.10445652,0.017353812,-0.02015998,0.017612519,-0.038618978,-0.08102081,-0.069976486,-0.013283032,-0.03002906,-0.088449866,0.03779878,-0.07185297,-0.08859431,-0.015755426,-0.049952433,-0.033663508,-0.0031025384,0.02421354,-0.025471851,-0.06083047,0.030936083,-0.04868084,-0.03986488,-0.01946865,-0.07041298,1.2739215e-33,0.0025561627,-0.04554465,0.057936344,0.043052725,-0.0043062484,-0.0553347,-0.047861595,0.0038154852,-0.102693245,-0.011325345,-0.009003472,0.028949473,-0.0046044304,-0.022821883,0.000678801,-0.06251577,0.045161776,-0.051624972,-0.0016156733,0.005822731,-0.0020871346,0.083521284,-0.05528457,-0.0152747575,-0.044199295,-0.13018686,0.014475595,-0.0361273,-0.050062984,0.020763747,0.08517498,-0.036615405,0.05810113,0.09312246,-0.05369396,-0.019322166,-0.03215757,-0.10963644,-0.0008117283,-0.0038300438,0.025685148,0.052018996,0.006574354,0.08709886,0.010527287,0.002247995,0.035854015,0.016105263,0.07461437,0.028456733,-0.029226474,0.061919563,-0.024159113,0.015958095,-0.048186105,-0.012959452,0.007265294,-0.02299366,-0.025660345,0.06600931,0.022124888,0.008843443,-0.058342125,-0.1300234,0.057795536,0.06467163,-0.10199821,0.006032052,0.032369602,-0.0030822759,0.0006830802,0.002861176,-0.010446339,-0.032414842,0.043629017,0.05933222,0.06870076,0.042607073,0.06374259,0.013580776,0.016094418,0.023360128,-0.030961752,0.06338213,-0.08064202,-0.02111853,-0.017582051,0.055314984,-0.031818077,-0.031388864,-0.021201067,-0.004283672,0.0398761,-0.03405091,-0.06016864,-1.8239485e-33,-0.042370927,0.001325249,0.041717954,0.0447536,0.018451722,0.13108009,0.06666526,-0.050459255,0.0148272365,0.08248382,0.063678026,0.113721505,0.07296838,-0.109745026,0.034341786,-0.037451092,0.155796,0.08285,-0.0013114495,0.016899588,-0.0480469,0.09664212,-0.061596375,-0.061633475,-0.12243594,0.079746105,0.026770422,-0.077901155,-0.01830518,0.02458362,0.022548947,-0.115587555,-0.021076407,0.025921749,-0.055306952,-0.08671619,0.044558756,-0.022543248,-0.05357234,0.043689538,0.034296885,-0.020771738,0.06957662,0.111116625,0.07112746,-0.103843726,-0.07374726,0.06985676,0.003555342,-0.045377705,-0.08098841,-0.032880906,0.0077292845,-0.026531884,0.010963281,-0.034662932,0.027941808,-0.0012131036,0.019337686,-0.020593556,0.057777293,0.023106838,-0.05419722,0.061426707,0.0041951155,0.03202425,-0.03703754,0.009646511,-0.099342,-0.027607428,-0.038750526,0.05762629,0.051297624,-0.029140772,0.032878686,0.014082428,0.00969436,-0.051527143,0.0127692325,0.014703528,0.00095760025,0.0019973004,0.0012351109,-0.0049294885,0.03279297,0.0084722405,0.025443273,-0.018701216,0.11300897,0.041118827,-0.07175715,0.0864266,0.082019925,-0.000832843,0.08910706,-1.9549557e-08,0.023969341,-0.038468,0.10250299,-0.05616625,0.03294873,-0.071387716,-0.017068068,-0.0021759227,0.03456922,0.04546985,0.050327946,0.106066294,-0.014081527,-0.059704997,0.01925554,0.0070208036,0.07810911,0.0381331,0.024391023,0.011957308,-0.00022494301,0.019765403,0.0070308982,-0.058419965,-0.016460357,-0.020342076,-0.020434855,0.0039301473,-0.035971366,-0.009256283,0.10121589,-0.057068866,0.039384928,-0.049012557,-0.0108725615,-0.013782754,-0.029664358,0.025101032,-0.025493618,0.018651003,0.0718732,-0.10889995,0.06134778,0.055505984,0.03811087,0.090237394,0.019191371,-0.043742474,-0.061873667,-0.01042172,-0.017592708,0.03741065,-0.0103907455,-0.03456265,-0.060749426,-0.07053153,0.012199917,-0.01900789,0.045115646,0.03176872,-0.012605961,0.024869636,0.053014442,0.07556962
/home/philipslinux/Documents/trieu_others/smark_picking_saffron/inpainting/dataset_masked/train/images/images-2022-08-07T114850-552_jpg.rf.4612fb80f14a8e01ee458a4089a24227.jpg,0.06461204,-0.028037567,-0.056188144,0.08012889,0.026471604,0.07979239,-0.031221198,-0.05931607,0.03673146,-0.055619687,0.07525446,-0.09917181,0.032716397,-0.056910146,0.0026873415,0.02584015,-0.073954344,-0.07216345,-0.014377933,0.053565238,0.061697092,0.045639735,0.0106019,0.04349581,0.04489713,-0.023970785,-0.06851149,0.004623269,0.009924733,-0.019033913,-0.024567915,0.07332798,0.021748697,-0.035796646,0.11421036,-0.021986911,-0.0330855,0.03755328,0.04850977,0.031411387,0.046110336,-0.063670054,0.018225228,0.0077971034,-0.023230016,0.023031956,-0.08421756,-0.019733934,0.01976,-0.032360293,-0.0037261134,-0.017530149,-0.18537916,0.0477467,0.024733642,-0.03757423,-0.06630818,0.011735981,-0.012587197,0.058481712,0.023057144,-0.06460274,-0.0062687555,-0.020516079,-0.02853201,-0.032778036,-0.14256689,-0.044918444,0.04578199,-0.011041627,0.07093166,0.06432926,0.022504292,0.06007542,-0.0798574,0.012981079,-0.03560809,0.01483632,-0.008870761,-0.00011281953,-0.06883674,-0.05141808,-0.044845417,0.03497052,0.016350001,0.09597871,-0.016917815,0.00832153,-0.019330248,0.006193484,-0.009938479,-0.029951971,-0.026432166,-0.016946882,-0.060689867,-0.062719315,0.008101542,-0.015271927,-0.03959965,0.0345827,0.0015414841,-0.03335976,0.07784674,0.0147208525,-0.010490686,0.035716705,-0.011743759,-0.07409175,-0.07434976,-0.001972744,-0.019507606,-0.10645617,0.050704565,-0.0801177,-0.09389171,-0.04072324,-0.061218426,-0.050241925,-0.025868088,0.024279693,-0.020513793,-0.040129963,0.010278124,-0.03235674,-0.04410358,-0.0050357976,-0.055230822,1.7136162e-33,0.0047527426,-0.057177786,0.07274129,0.026133737,-0.016734982,-0.05637886,-0.0592834,0.014944557,-0.08237802,0.0026987079,-0.01674142,0.026430055,-0.006708501,-0.02472649,0.033784155,-0.040344864,0.06644015,-0.047000095,0.009301214,0.00799415,0.012031382,0.090484835,-0.06708324,-0.019358847,-0.038240526,-0.11723805,0.0065480666,-0.06906106,-0.064162984,0.018970646,0.05719683,-0.040407572,0.08524171,0.10742608,-0.036200985,0.00047416083,-0.049033202,-0.1166765,-0.02334912,-0.006179026,0.0062641087,0.048648387,-0.0027667624,0.06804454,0.015518688,0.019254373,0.045485128,0.014278425,0.056530535,0.05729048,-0.023300415,0.0753067,-0.0299135,0.028051872,-0.049574915,-0.021815969,-0.014720788,0.00381954,-0.052300658,0.0521482,0.031188654,0.015285931,-0.049881626,-0.14348957,0.038976103,0.062654056,-0.09165367,-0.004177532,0.043484997,-0.0137648005,0.0018039469,-0.005024015,0.0022536328,0.010534498,0.051990952,0.05270746,0.055416282,0.016928524,0.0647394,0.016640123,0.054940682,0.021498155,-0.030815015,0.031783674,-0.08851943,-0.02986802,-0.007876915,0.06229989,-0.01799957,-0.023363328,-0.02273701,0.0040222863,0.034152295,-0.033669457,-0.057235464,-2.4248197e-33,-0.026655588,0.0030605318,0.020913744,0.034873668,-0.010688916,0.13010192,0.07467542,-0.047012098,0.03659771,0.079244666,0.08656584,0.11071357,0.08009575,-0.09403426,0.040953726,-0.040485326,0.139904,0.08914366,-0.020580526,0.035496846,-0.045420572,0.113450214,-0.06707794,-0.060145833,-0.09810571,0.076003015,0.02628027,-0.054368198,-0.0080653895,0.023981439,0.050473977,-0.111496866,-0.04981095,0.010355958,-0.06177091,-0.093791835,0.048197627,-0.009741727,-0.056399755,0.022381797,0.042301323,-0.0049656713,0.050446074,0.124971606,0.060463417,-0.10073532,-0.068241626,0.063200854,0.012486762,-0.066447005,-0.070531346,-0.044548217,0.029028216,-0.02632908,0.01999183,-0.0152682215,0.02873207,-0.026577443,0.024589738,-0.03992794,0.057019718,0.020915441,-0.034563962,0.038733836,0.0036588737,0.0460866,-0.050447,0.038992483,-0.08602348,-0.057474975,-0.038952906,0.047485806,0.045518707,-0.038811695,0.013029849,0.038750693,-0.0011316095,-0.0532511,0.019076155,-0.0009431058,0.005327614,0.012043264,0.002679072,0.0034019526,0.03221365,0.008600789,-0.0015215109,-0.028756287,0.089615956,0.023826443,-0.05979383,0.07011363,0.08689313,0.0067206756,0.087950386,-1.9018744e-08,0.008498132,-0.043035153,0.092855,-0.046662938,0.023683231,-0.06587307,-0.0011447226,-0.027947573,0.05217437,0.06819784,0.05761161,0.10083865,-0.04980026,-0.056042913,0.010256919,0.018788198,0.06744297,0.040700678,0.012486628,0.016451592,-0.03214823,0.017536556,-0.015614347,-0.03379189,-0.0049791723,-0.024228701,-0.023453852,-0.014961927,-0.028188348,0.010960639,0.0962296,-0.054699555,0.042488568,-0.035553064,-0.033542506,-0.013681656,0.008482836,0.057043664,-0.030677253,0.014532216,0.052807514,-0.105413035,0.06644933,0.046530884,0.01981569,0.060529128,0.036895026,-0.030707072,-0.07188849,-0.011675297,0.002316984,0.053889733,-0.028953467,-0.036082823,-0.059524592,-0.08092773,0.016815538,0.008439048,0.013731085,0.035863016,-0.01928751,0.02801274,0.07688016,0.06600313
/home/philipslinux/Documents/trieu_others/smark_picking_saffron/inpainting/dataset_masked/train/images/images-2022-08-07T114853-930_jpg.rf.db34f0ab64fc687a318994cb60847537.jpg,0.058876142,-0.0675718,-0.052057486,0.06982193,0.03153727,0.059669726,-0.03891301,-0.054006677,0.026737215,-0.039337557,0.042695075,-0.099678285,0.05466125,-0.0659372,0.017531827,0.0323251,-0.07300259,-0.057282615,-0.015445825,0.042882107,0.06432974,0.036128856,0.022684654,0.05998187,0.022425104,-0.04435757,-0.070421256,0.00013603953,-0.00044334301,-0.038495623,-0.008437219,0.06569464,0.0245298,-0.00735677,0.09996742,-0.030276317,-0.04819554,0.05236711,0.050056357,0.043210726,0.05014571,-0.042053167,0.022236615,-0.0052204374,-0.026412873,-0.00046973987,-0.1064515,-0.009508355,0.03610855,-0.011251122,0.013059263,-0.010944352,-0.16521324,0.04935442,0.048301715,-0.07200519,-0.06893546,0.00046585835,-0.004350347,0.07160463,0.028549742,-0.06803888,-0.01207228,-0.03874645,-0.02951067,-0.027339146,-0.13871802,-0.04500927,0.05472463,-0.011896993,0.059728783,0.05579329,0.030669605,0.058672164,-0.079595186,-0.00293562,-0.025155492,0.010753659,-0.02448846,-0.0092012845,-0.07424648,-0.022853622,-0.029270206,0.021221837,0.021166194,0.07781136,0.004235383,0.03162226,0.00043970105,-0.0061510657,0.0007793823,-0.013326146,0.0066062566,-0.020946335,-0.07080159,-0.06269132,0.01037686,-0.023367302,-0.025164362,0.013622527,0.0033274447,-0.019176295,0.10445652,0.017353812,-0.02015998,0.017612519,-0.038618978,-0.08102081,-0.069976486,-0.013283032,-0.03002906,-0.088449866,0.03779878,-0.07185297,-0.08859431,-0.015755426,-0.049952433,-0.033663508,-0.0031025384,0.02421354,-0.025471851,-0.06083047,0.030936083,-0.04868084,-0.03986488,-0.01946865,-0.07041298,1.2739215e-33,0.0025561627,-0.04554465,0.057936344,0.043052725,-0.0043062484,-0.0553347,-0.047861595,0.0038154852,-0.102693245,-0.011325345,-0.009003472,0.028949473,-0.0046044304,-0.022821883,0.000678801,-0.06251577,0.045161776,-0.051624972,-0.0016156733,0.005822731,-0.0020871346,0.083521284,-0.05528457,-0.0152747575,-0.044199295,-0.13018686,0.014475595,-0.0361273,-0.050062984,0.020763747,0.08517498,-0.036615405,0.05810113,0.09312246,-0.05369396,-0.019322166,-0.03215757,-0.10963644,-0.0008117283,-0.0038300438,0.025685148,0.052018996,0.006574354,0.08709886,0.010527287,0.002247995,0.035854015,0.016105263,0.07461437,0.028456733,-0.029226474,0.061919563,-0.024159113,0.015958095,-0.048186105,-0.012959452,0.007265294,-0.02299366,-0.025660345,0.06600931,0.022124888,0.008843443,-0.058342125,-0.1300234,0.057795536,0.06467163,-0.10199821,0.006032052,0.032369602,-0.0030822759,0.0006830802,0.002861176,-0.010446339,-0.032414842,0.043629017,0.05933222,0.06870076,0.042607073,0.06374259,0.013580776,0.016094418,0.023360128,-0.030961752,0.06338213,-0.08064202,-0.02111853,-0.017582051,0.055314984,-0.031818077,-0.031388864,-0.021201067,-0.004283672,0.0398761,-0.03405091,-0.06016864,-1.8239485e-33,-0.042370927,0.001325249,0.041717954,0.0447536,0.018451722,0.13108009,0.06666526,-0.050459255,0.0148272365,0.08248382,0.063678026,0.113721505,0.07296838,-0.109745026,0.034341786,-0.037451092,0.155796,0.08285,-0.0013114495,0.016899588,-0.0480469,0.09664212,-0.061596375,-0.061633475,-0.12243594,0.079746105,0.026770422,-0.077901155,-0.01830518,0.02458362,0.022548947,-0.115587555,-0.021076407,0.025921749,-0.055306952,-0.08671619,0.044558756,-0.022543248,-0.05357234,0.043689538,0.034296885,-0.020771738,0.06957662,0.111116625,0.07112746,-0.103843726,-0.07374726,0.06985676,0.003555342,-0.045377705,-0.08098841,-0.032880906,0.0077292845,-0.026531884,0.010963281,-0.034662932,0.027941808,-0.0012131036,0.019337686,-0.020593556,0.057777293,0.023106838,-0.05419722,0.061426707,0.0041951155,0.03202425,-0.03703754,0.009646511,-0.099342,-0.027607428,-0.038750526,0.05762629,0.051297624,-0.029140772,0.032878686,0.014082428,0.00969436,-0.051527143,0.0127692325,0.014703528,0.00095760025,0.0019973004,0.0012351109,-0.0049294885,0.03279297,0.0084722405,0.025443273,-0.018701216,0.11300897,0.041118827,-0.07175715,0.0864266,0.082019925,-0.000832843,0.08910706,-1.9549557e-08,0.023969341,-0.038468,0.10250299,-0.05616625,0.03294873,-0.071387716,-0.017068068,-0.0021759227,0.03456922,0.04546985,0.050327946,0.106066294,-0.014081527,-0.059704997,0.01925554,0.0070208036,0.07810911,0.0381331,0.024391023,0.011957308,-0.00022494301,0.019765403,0.0070308982,-0.058419965,-0.016460357,-0.020342076,-0.020434855,0.0039301473,-0.035971366,-0.009256283,0.10121589,-0.057068866,0.039384928,-0.049012557,-0.0108725615,-0.013782754,-0.029664358,0.025101032,-0.025493618,0.018651003,0.0718732,-0.10889995,0.06134778,0.055505984,0.03811087,0.090237394,0.019191371,-0.043742474,-0.061873667,-0.01042172,-0.017592708,0.03741065,-0.0103907455,-0.03456265,-0.060749426,-0.07053153,0.012199917,-0.01900789,0.045115646,0.03176872,-0.012605961,0.024869636,0.053014442,0.07556962
/home/philipslinux/Documents/trieu_others/smark_picking_saffron/inpainting/dataset_masked/train/images/images-2022-08-07T114853-117_jpg.rf.b0d89b307cf88fc6405c47e4fc94c986.jpg,0.058876142,-0.0675718,-0.052057486,0.06982193,0.03153727,0.059669726,-0.03891301,-0.054006677,0.026737215,-0.039337557,0.042695075,-0.099678285,0.05466125,-0.0659372,0.017531827,0.0323251,-0.07300259,-0.057282615,-0.015445825,0.042882107,0.06432974,0.036128856,0.022684654,0.05998187,0.022425104,-0.04435757,-0.070421256,0.00013603953,-0.00044334301,-0.038495623,-0.008437219,0.06569464,0.0245298,-0.00735677,0.09996742,-0.030276317,-0.04819554,0.05236711,0.050056357,0.043210726,0.05014571,-0.042053167,0.022236615,-0.0052204374,-0.026412873,-0.00046973987,-0.1064515,-0.009508355,0.03610855,-0.011251122,0.013059263,-0.010944352,-0.16521324,0.04935442,0.048301715,-0.07200519,-0.06893546,0.00046585835,-0.004350347,0.07160463,0.028549742,-0.06803888,-0.01207228,-0.03874645,-0.02951067,-0.027339146,-0.13871802,-0.04500927,0.05472463,-0.011896993,0.059728783,0.05579329,0.030669605,0.058672164,-0.079595186,-0.00293562,-0.025155492,0.010753659,-0.02448846,-0.0092012845,-0.07424648,-0.022853622,-0.029270206,0.021221837,0.021166194,0.07781136,0.004235383,0.03162226,0.00043970105,-0.0061510657,0.0007793823,-0.013326146,0.0066062566,-0.020946335,-0.07080159,-0.06269132,0.01037686,-0.023367302,-0.025164362,0.013622527,0.0033274447,-0.019176295,0.10445652,0.017353812,-0.02015998,0.017612519,-0.038618978,-0.08102081,-0.069976486,-0.013283032,-0.03002906,-0.088449866,0.03779878,-0.07185297,-0.08859431,-0.015755426,-0.049952433,-0.033663508,-0.0031025384,0.02421354,-0.025471851,-0.06083047,0.030936083,-0.04868084,-0.03986488,-0.01946865,-0.07041298,1.2739215e-33,0.0025561627,-0.04554465,0.057936344,0.043052725,-0.0043062484,-0.0553347,-0.047861595,0.0038154852,-0.102693245,-0.011325345,-0.009003472,0.028949473,-0.0046044304,-0.022821883,0.000678801,-0.06251577,0.045161776,-0.051624972,-0.0016156733,0.005822731,-0.0020871346,0.083521284,-0.05528457,-0.0152747575,-0.044199295,-0.13018686,0.014475595,-0.0361273,-0.050062984,0.020763747,0.08517498,-0.036615405,0.05810113,0.09312246,-0.05369396,-0.019322166,-0.03215757,-0.10963644,-0.0008117283,-0.0038300438,0.025685148,0.052018996,0.006574354,0.08709886,0.010527287,0.002247995,0.035854015,0.016105263,0.07461437,0.028456733,-0.029226474,0.061919563,-0.024159113,0.015958095,-0.048186105,-0.012959452,0.007265294,-0.02299366,-0.025660345,0.06600931,0.022124888,0.008843443,-0.058342125,-0.1300234,0.057795536,0.06467163,-0.10199821,0.006032052,0.032369602,-0.0030822759,0.0006830802,0.002861176,-0.010446339,-0.032414842,0.043629017,0.05933222,0.06870076,0.042607073,0.06374259,0.013580776,0.016094418,0.023360128,-0.030961752,0.06338213,-0.08064202,-0.02111853,-0.017582051,0.055314984,-0.031818077,-0.031388864,-0.021201067,-0.004283672,0.0398761,-0.03405091,-0.06016864,-1.8239485e-33,-0.042370927,0.001325249,0.041717954,0.0447536,0.018451722,0.13108009,0.06666526,-0.050459255,0.0148272365,0.08248382,0.063678026,0.113721505,0.07296838,-0.109745026,0.034341786,-0.037451092,0.155796,0.08285,-0.0013114495,0.016899588,-0.0480469,0.09664212,-0.061596375,-0.061633475,-0.12243594,0.079746105,0.026770422,-0.077901155,-0.01830518,0.02458362,0.022548947,-0.115587555,-0.021076407,0.025921749,-0.055306952,-0.08671619,0.044558756,-0.022543248,-0.05357234,0.043689538,0.034296885,-0.020771738,0.06957662,0.111116625,0.07112746,-0.103843726,-0.07374726,0.06985676,0.003555342,-0.045377705,-0.08098841,-0.032880906,0.0077292845,-0.026531884,0.010963281,-0.034662932,0.027941808,-0.0012131036,0.019337686,-0.020593556,0.057777293,0.023106838,-0.05419722,0.061426707,0.0041951155,0.03202425,-0.03703754,0.009646511,-0.099342,-0.027607428,-0.038750526,0.05762629,0.051297624,-0.029140772,0.032878686,0.014082428,0.00969436,-0.051527143,0.0127692325,0.014703528,0.00095760025,0.0019973004,0.0012351109,-0.0049294885,0.03279297,0.0084722405,0.025443273,-0.018701216,0.11300897,0.041118827,-0.07175715,0.0864266,0.082019925,-0.000832843,0.08910706,-1.9549557e-08,0.023969341,-0.038468,0.10250299,-0.05616625,0.03294873,-0.071387716,-0.017068068,-0.0021759227,0.03456922,0.04546985,0.050327946,0.106066294,-0.014081527,-0.059704997,0.01925554,0.0070208036,0.07810911,0.0381331,0.024391023,0.011957308,-0.00022494301,0.019765403,0.0070308982,-0.058419965,-0.016460357,-0.020342076,-0.020434855,0.0039301473,-0.035971366,-0.009256283,0.10121589,-0.057068866,0.039384928,-0.049012557,-0.0108725615,-0.013782754,-0.029664358,0.025101032,-0.025493618,0.018651003,0.0718732,-0.10889995,0.06134778,0.055505984,0.03811087,0.090237394,0.019191371,-0.043742474,-0.061873667,-0.01042172,-0.017592708,0.03741065,-0.0103907455,-0.03456265,-0.060749426,-0.07053153,0.012199917,-0.01900789,0.045115646,0.03176872,-0.012605961,0.024869636,0.053014442,0.07556962
/home/philipslinux/Documents/trieu_others/smark_picking_saffron/inpainting/dataset_masked/train/images/images-2022-08-07T114850-098_jpg.rf.33e6acdf0969e6515bfe18c2210b8b31.jpg,0.056504726,-0.0725348,-0.023989083,0.074730985,0.049173065,0.06831125,-0.041962255,-0.069843546,0.01886466,0.0062649525,0.039013546,-0.07866943,0.03371822,-0.07235162,0.00634866,0.048814785,-0.07631702,-0.04663076,-0.05858297,0.014689706,0.06707723,0.034565534,0.025464704,0.045577664,0.020776128,-0.036658783,-0.064033225,-0.01169664,-0.014514481,-0.05397657,-0.033349853,0.087117895,0.008639202,-0.03239602,0.072214864,-0.005011952,-0.07327715,0.05716416,0.061077394,0.058635138,0.04215066,-0.06728149,0.0054566413,0.008031895,-0.01630946,-0.007392441,-0.10898524,-0.024911396,0.05507732,-0.022870686,-0.0035832394,-0.015858334,-0.16090882,0.02796034,0.017146153,-0.09728379,-0.068318896,-0.037446253,0.005063957,0.055012077,0.037434768,-0.05085265,-0.02514591,-0.034621455,-0.057860684,0.00042487832,-0.13549122,-0.041350614,0.047344152,0.0038157997,0.061461996,0.055304125,0.050962154,0.058223367,-0.08167549,-0.009882152,-0.017651824,-0.013858771,-0.017230326,-0.0087381005,-0.07959039,-0.0035791865,-0.031374875,0.026551044,0.013044026,0.079235554,-0.009828998,0.028110543,-0.017503709,-0.0130280135,-0.005193078,-0.0021234003,-0.0055885348,-0.022551322,-0.08628321,-0.059295483,0.0010317842,-0.04239532,-0.041933905,0.013033441,0.02612603,-0.028393883,0.09618011,0.014471634,-0.029023776,-0.00047915895,-0.02663687,-0.067541264,-0.086189374,-0.031342644,-0.041754045,-0.07527158,0.022193776,-0.071318224,-0.07279336,-0.008367573,-0.072513595,-0.05385178,0.0021430396,0.020252287,-0.023546537,-0.03702692,0.039103795,-0.045876358,-0.05094908,-0.018679656,-0.07345109,1.1256463e-33,-0.0039941785,-0.052465126,0.07591161,0.07738921,-0.0040629297,-0.046993982,-0.043658067,-0.007157029,-0.09687114,-0.005262255,0.0034305877,0.014904025,0.001086326,-0.037842043,0.032514755,-0.04894257,0.02764545,-0.031101342,-0.005589346,0.0038737704,-0.0004127682,0.088881366,-0.06029408,-0.018442003,-0.05145633,-0.08499122,0.015153097,-0.0381266,-0.03161221,0.028849082,0.06796367,-0.021586278,0.08405772,0.072082974,-0.027812125,-0.004034711,-0.008056817,-0.092718184,0.0006021852,-0.00092290493,0.04939536,0.030502163,-0.00094746257,0.12650126,0.017604869,0.030784607,0.032497056,0.007012928,0.067792565,0.036164224,-0.019239902,0.049706805,-0.0069609312,0.028809804,-0.038790468,-0.0055633355,-0.0033433773,-0.011144728,-0.02701195,0.08816493,0.027664836,0.011088054,-0.047014598,-0.12359354,0.060689893,0.08332236,-0.07773726,0.0101575,0.039051685,0.006074829,0.008821751,0.026868017,-0.00018907561,0.0010474703,0.050998725,0.06315608,0.07525461,0.037177213,0.054710194,0.014284406,0.027378008,0.010456611,-0.0328788,0.06569371,-0.0812484,-0.0078463545,-0.0070582908,0.047156677,-0.026607761,-0.026362872,0.0052395524,-0.035560425,0.060106713,-0.034092244,-0.08457734,-1.5382635e-33,-0.02721527,-0.015610466,0.047090538,0.058687605,0.016883781,0.11116337,0.06375626,-0.050831746,-0.0013494961,0.08652787,0.06222367,0.12240495,0.09212747,-0.09075046,0.03315881,-0.020468764,0.15891172,0.09332498,0.020125927,0.012103398,-0.032355774,0.08403289,-0.06535155,-0.06280676,-0.08820879,0.11122259,0.01989953,-0.10902586,-0.016229996,0.009327078,0.016442725,-0.12899692,-0.021031069,0.029655786,-0.036936726,-0.08688997,0.03512059,0.0016089536,-0.071628965,0.042791326,0.015507337,-0.024530573,0.059958454,0.08901994,0.048541635,-0.10187013,-0.089892365,0.06550721,0.0067025204,-0.034606475,-0.061276946,-0.06763508,-0.00663972,-0.030379934,-0.012747779,-0.022945302,0.03942229,0.006814394,0.02206841,0.0035784466,0.04006997,0.020146513,-0.033621818,0.031223252,0.008406517,0.03960702,-0.021612769,0.012681712,-0.107167445,-0.054548245,-0.07767001,0.043589145,0.04294987,-0.023683442,0.027328726,0.015153356,0.02020614,-0.035686128,0.0246936,0.03541161,-0.016546858,-0.016534748,-0.014323867,-0.005022461,0.0149933025,-0.01352508,0.034184404,-0.022141477,0.14143418,0.063122235,-0.06107832,0.08250432,0.095165044,-0.009737644,0.09295724,-1.9308843e-08,0.02432522,-0.03241371,0.091713004,-0.056618568,0.04505258,-0.068203285,-0.023899805,-0.00161983,0.04955701,0.06872384,0.052401368,0.09231581,-0.016850881,-0.029208856,-0.0006406108,-0.011149215,0.08472574,0.028748047,0.038612094,-0.00044863886,-0.0091094,0.017037548,0.018060936,-0.059997816,0.004858705,-0.032939762,-0.000956338,-0.007788834,-0.03655239,-0.013859126,0.08835437,-0.048011906,0.012933928,-0.03370227,-0.009681309,0.016586287,-0.03368434,0.0067710206,-0.037795413,0.03947076,0.032445524,-0.12221152,0.05799515,0.05448084,0.030489938,0.061520413,0.007017843,-0.047527257,-0.04447342,-0.018362401,-0.037732493,0.033335708,-0.0064846408,-0.03844341,-0.047753565,-0.076960705,0.028690992,-0.039739646,0.052199356,0.027093157,-0.019317184,0.024784157,0.056357946,0.07877258
/home/philipslinux/Documents/trieu_others/smark_picking_saffron/inpainting/dataset_masked/train/images/images-2022-08-07T114851-161_jpg.rf.a25bf0fa377ce77d6f1394235cbcbdff.jpg,0.059389006,-0.076732285,-0.06354694,0.05597815,0.038903706,0.06270054,-0.048944645,-0.075492546,0.031010332,-0.025776597,0.045811135,-0.097375944,0.03709115,-0.06642341,0.03243236,0.033664424,-0.079136744,-0.03431182,-0.02326454,0.03073822,0.074319035,0.035053503,0.048442084,0.06004953,0.02128726,-0.020966914,-0.06569278,-0.01071988,-0.0074305213,-0.037285324,-0.022784835,0.068580516,0.02778592,-0.03833798,0.10099298,-0.03370326,-0.070907846,0.050472792,0.051080775,0.060116354,0.040493634,-0.04218052,0.026917402,-0.0030858342,-0.020015625,0.002202468,-0.11578376,-0.041279048,0.061932605,-0.019970983,0.0045407577,-0.024495298,-0.1555657,0.05256439,0.03012659,-0.075667776,-0.07286054,-0.0045009926,0.0055102436,0.07829895,0.0363053,-0.039553504,-0.014518838,-0.039430223,-0.009066067,-0.018130636,-0.14877717,-0.04578255,0.044241503,-0.004690643,0.061091155,0.056260314,0.02540537,0.052771185,-0.070240416,0.005903742,-0.0014647456,0.010414615,-0.032346357,-0.016487433,-0.061241582,-0.023314953,-0.028543212,0.05291222,0.018778352,0.069418184,-0.018785203,0.011694084,-0.021821475,0.0036865682,-0.014584646,-0.003112803,-0.010219072,-0.016336918,-0.07166945,-0.045854323,0.002086406,-0.037834655,-0.027894102,0.022083675,0.022190746,-0.009924778,0.10213978,0.016011838,-0.0043208683,0.009747431,-0.048765726,-0.06906255,-0.09106321,-0.0051662815,-0.026993174,-0.08733892,0.036173068,-0.07101164,-0.09879179,0.0018971785,-0.055713497,-0.0531561,0.00236079,0.032550126,-0.020221015,-0.052865893,0.02963321,-0.05500223,-0.028099671,-0.01899838,-0.06284325,1.0765966e-33,-0.0031496307,-0.04221196,0.052887168,0.051311508,-0.009104208,-0.045250725,-0.053444587,-0.0061338823,-0.11197521,-0.012856774,-0.006359131,0.00595465,-0.0028981161,-0.029900046,0.001456088,-0.06034625,0.027402407,-0.049770635,-0.007935051,0.012936475,0.023957066,0.07721781,-0.055652007,-0.015587061,-0.049869243,-0.123577,0.0087205395,-0.04013512,-0.04135747,0.021929909,0.099578634,-0.035725206,0.06428573,0.08307172,-0.06014587,-0.02086819,-0.036717687,-0.13286108,-0.013582051,0.02154548,0.030276392,0.042792868,0.016324187,0.09645074,0.011319728,0.026568918,0.042691093,0.0041312864,0.070589244,0.027395412,-0.011997298,0.055326153,-0.0066491,0.031818252,-0.044054486,-0.017989533,-0.00402038,-0.02169907,-0.011808995,0.059110794,0.017623914,0.009341368,-0.050880395,-0.1122919,0.059761845,0.07432894,-0.10858942,0.011963891,0.035173904,-0.004037945,0.0029246318,-0.0044780527,-0.013683409,-0.01746361,0.04485106,0.048001945,0.050230682,0.041497033,0.06832558,-0.007801367,0.028561717,0.02413876,-0.021513628,0.07692195,-0.09314541,-0.035199754,-0.018793104,0.044765957,-0.03822214,-0.023714462,-0.013926016,-0.0024239062,0.049655713,-0.023662861,-0.07056377,-1.5018197e-33,-0.027707674,0.0059081637,0.049336772,0.03460418,0.020918552,0.11134203,0.05964151,-0.032892447,0.011875372,0.081697665,0.06325595,0.100517415,0.096247524,-0.11317824,0.058761474,-0.02065328,0.16316551,0.07700399,0.0012016478,0.010800819,-0.026429048,0.0893062,-0.07402148,-0.061348148,-0.12494166,0.085594736,0.02340351,-0.09317498,-0.030574173,0.02067594,0.010884627,-0.12323887,-0.026521958,0.033080675,-0.043710064,-0.086922854,0.04566124,-0.016897678,-0.06427625,0.039813507,0.035189494,-0.019373242,0.06214289,0.11396497,0.07156843,-0.07904676,-0.065509796,0.07335664,0.006722811,-0.030712316,-0.07953836,-0.074420914,0.023679407,-0.019839616,0.021032277,-0.023542333,0.035613373,-0.02510787,0.023655519,-0.01613592,0.058581047,0.022488786,-0.03735271,0.055226248,0.004917062,0.04340787,-0.04397071,0.011524595,-0.09040271,-0.028636228,-0.06693074,0.05328433,0.030650485,-0.030958788,0.033121917,0.013160627,0.004719958,-0.027407175,0.012600845,0.019101413,0.003969912,-0.0033422923,0.00898119,0.0016527659,0.026810078,-0.002661326,0.01906878,-0.022861812,0.11238559,0.025241716,-0.070694886,0.084083706,0.08265129,0.008463825,0.10678231,-1.9628835e-08,0.032170262,-0.02034961,0.092644565,-0.051741753,0.03058558,-0.07477789,-0.0028530092,0.014056176,0.03602054,0.051983677,0.038247395,0.09793479,-0.020526936,-0.0629805,0.024316765,0.00029309146,0.09223857,0.033138312,0.021014063,-0.0007802252,-0.0044900724,0.021510756,0.017690536,-0.052067548,-0.008585662,0.0048693875,-0.020701755,0.00042851624,-0.032201417,0.002326174,0.092869036,-0.05109226,0.03043266,-0.040371146,-0.036209527,-0.028606566,-0.028833508,0.017787771,-0.018990954,0.01594242,0.06715906,-0.09222424,0.050569378,0.05745237,0.029894985,0.0730967,0.009273029,-0.04001454,-0.057900615,-0.014525261,-0.02170217,0.025820378,-0.008957389,-0.012906745,-0.048433732,-0.09323453,0.0013795092,-0.023367582,0.030802477,0.02731857,0.0017340156,0.0079553975,0.057462003,0.08599111
/home/philipslinux/Documents/trieu_others/smark_picking_saffron/inpainting/dataset_masked/train/images/033154971-f66a3e8c-97c1-47f6-b590-afc8d761ca2e_jpg.rf.82748684ce7392ff865e0a4d7a7312fb.jpg,0.058876142,-0.0675718,-0.052057486,0.06982193,0.03153727,0.059669726,-0.03891301,-0.054006677,0.026737215,-0.039337557,0.042695075,-0.099678285,0.05466125,-0.0659372,0.017531827,0.0323251,-0.07300259,-0.057282615,-0.015445825,0.042882107,0.06432974,0.036128856,0.022684654,0.05998187,0.022425104,-0.04435757,-0.070421256,0.00013603953,-0.00044334301,-0.038495623,-0.008437219,0.06569464,0.0245298,-0.00735677,0.09996742,-0.030276317,-0.04819554,0.05236711,0.050056357,0.043210726,0.05014571,-0.042053167,0.022236615,-0.0052204374,-0.026412873,-0.00046973987,-0.1064515,-0.009508355,0.03610855,-0.011251122,0.013059263,-0.010944352,-0.16521324,0.04935442,0.048301715,-0.07200519,-0.06893546,0.00046585835,-0.004350347,0.07160463,0.028549742,-0.06803888,-0.01207228,-0.03874645,-0.02951067,-0.027339146,-0.13871802,-0.04500927,0.05472463,-0.011896993,0.059728783,0.05579329,0.030669605,0.058672164,-0.079595186,-0.00293562,-0.025155492,0.010753659,-0.02448846,-0.0092012845,-0.07424648,-0.022853622,-0.029270206,0.021221837,0.021166194,0.07781136,0.004235383,0.03162226,0.00043970105,-0.0061510657,0.0007793823,-0.013326146,0.0066062566,-0.020946335,-0.07080159,-0.06269132,0.01037686,-0.023367302,-0.025164362,0.013622527,0.0033274447,-0.019176295,0.10445652,0.017353812,-0.02015998,0.017612519,-0.038618978,-0.08102081,-0.069976486,-0.013283032,-0.03002906,-0.088449866,0.03779878,-0.07185297,-0.08859431,-0.015755426,-0.049952433,-0.033663508,-0.0031025384,0.02421354,-0.025471851,-0.06083047,0.030936083,-0.04868084,-0.03986488,-0.01946865,-0.07041298,1.2739215e-33,0.0025561627,-0.04554465,0.057936344,0.043052725,-0.0043062484,-0.0553347,-0.047861595,0.0038154852,-0.102693245,-0.011325345,-0.009003472,0.028949473,-0.0046044304,-0.022821883,0.000678801,-0.06251577,0.045161776,-0.051624972,-0.0016156733,0.005822731,-0.0020871346,0.083521284,-0.05528457,-0.0152747575,-0.044199295,-0.13018686,0.014475595,-0.0361273,-0.050062984,0.020763747,0.08517498,-0.036615405,0.05810113,0.09312246,-0.05369396,-0.019322166,-0.03215757,-0.10963644,-0.0008117283,-0.0038300438,0.025685148,0.052018996,0.006574354,0.08709886,0.010527287,0.002247995,0.035854015,0.016105263,0.07461437,0.028456733,-0.029226474,0.061919563,-0.024159113,0.015958095,-0.048186105,-0.012959452,0.007265294,-0.02299366,-0.025660345,0.06600931,0.022124888,0.008843443,-0.058342125,-0.1300234,0.057795536,0.06467163,-0.10199821,0.006032052,0.032369602,-0.0030822759,0.0006830802,0.002861176,-0.010446339,-0.032414842,0.043629017,0.05933222,0.06870076,0.042607073,0.06374259,0.013580776,0.016094418,0.023360128,-0.030961752,0.06338213,-0.08064202,-0.02111853,-0.017582051,0.055314984,-0.031818077,-0.031388864,-0.021201067,-0.004283672,0.0398761,-0.03405091,-0.06016864,-1.8239485e-33,-0.042370927,0.001325249,0.041717954,0.0447536,0.018451722,0.13108009,0.06666526,-0.050459255,0.0148272365,0.08248382,0.063678026,0.113721505,0.07296838,-0.109745026,0.034341786,-0.037451092,0.155796,0.08285,-0.0013114495,0.016899588,-0.0480469,0.09664212,-0.061596375,-0.061633475,-0.12243594,0.079746105,0.026770422,-0.077901155,-0.01830518,0.02458362,0.022548947,-0.115587555,-0.021076407,0.025921749,-0.055306952,-0.08671619,0.044558756,-0.022543248,-0.05357234,0.043689538,0.034296885,-0.020771738,0.06957662,0.111116625,0.07112746,-0.103843726,-0.07374726,0.06985676,0.003555342,-0.045377705,-0.08098841,-0.032880906,0.0077292845,-0.026531884,0.010963281,-0.034662932,0.027941808,-0.0012131036,0.019337686,-0.020593556,0.057777293,0.023106838,-0.05419722,0.061426707,0.0041951155,0.03202425,-0.03703754,0.009646511,-0.099342,-0.027607428,-0.038750526,0.05762629,0.051297624,-0.029140772,0.032878686,0.014082428,0.00969436,-0.051527143,0.0127692325,0.014703528,0.00095760025,0.0019973004,0.0012351109,-0.0049294885,0.03279297,0.0084722405,0.025443273,-0.018701216,0.11300897,0.041118827,-0.07175715,0.0864266,0.082019925,-0.000832843,0.08910706,-1.9549557e-08,0.023969341,-0.038468,0.10250299,-0.05616625,0.03294873,-0.071387716,-0.017068068,-0.0021759227,0.03456922,0.04546985,0.050327946,0.106066294,-0.014081527,-0.059704997,0.01925554,0.0070208036,0.07810911,0.0381331,0.024391023,0.011957308,-0.00022494301,0.019765403,0.0070308982,-0.058419965,-0.016460357,-0.020342076,-0.020434855,0.0039301473,-0.035971366,-0.009256283,0.10121589,-0.057068866,0.039384928,-0.049012557,-0.0108725615,-0.013782754,-0.029664358,0.025101032,-0.025493618,0.018651003,0.0718732,-0.10889995,0.06134778,0.055505984,0.03811087,0.090237394,0.019191371,-0.043742474,-0.061873667,-0.01042172,-0.017592708,0.03741065,-0.0103907455,-0.03456265,-0.060749426,-0.07053153,0.012199917,-0.01900789,0.045115646,0.03176872,-0.012605961,0.024869636,0.053014442,0.07556962
/home/philipslinux/Documents/trieu_others/smark_picking_saffron/inpainting/dataset_masked/train/images/240_F_314595414_ywJehivWZKSE3FC0z8bmtGhETyed5hUt_jpg.rf.47f3c968561d43e4071e3510ef1f8276.jpg,0.052066773,-0.072188064,-0.03722772,0.063610055,0.042157896,0.048570383,-0.056709614,-0.058344886,0.019534513,-0.04334399,0.040270545,-0.08229232,0.0488338,-0.07205644,0.03861398,0.040425174,-0.0752295,-0.030265262,-0.0113711925,0.022235801,0.072677255,0.020449959,0.027672015,0.04721227,0.006491421,0.0026682222,-0.08129477,0.02073911,-0.013315369,-0.03962771,0.010220558,0.0564717,-0.012569367,-0.011081114,0.07620659,-0.04100255,-0.04824868,0.07637881,0.055857506,0.013297751,0.035898138,-0.04979121,0.024737172,0.0013787646,-0.025436945,-0.0016891708,-0.09551033,-0.033530924,0.05061326,0.010349407,-0.0064979307,-0.022252874,-0.13423075,0.035490297,0.048632324,-0.04027138,-0.0749087,-0.004729448,0.007679312,0.07314194,0.043102846,-0.04800587,-0.02801022,-0.030448776,-0.031327955,-0.05153218,-0.13137338,-0.022277182,0.03513346,-0.031094769,0.06873297,0.06464906,0.031291753,0.04369489,-0.059094585,-0.014087753,-0.024715658,0.009250792,-0.02790437,-0.021983147,-0.053144526,-0.02751887,-0.014761176,0.020110099,0.01928844,0.06586213,-0.0013112837,0.0035082034,-0.013740855,-0.023776881,0.023947978,-0.012404607,0.02980035,-0.013977259,-0.07966402,-0.07161797,0.009472692,-0.025390629,-0.017204069,0.02703394,0.0009091915,-0.014856214,0.084311776,-0.011752004,0.00247875,-0.025549483,-0.047914654,-0.07843236,-0.053832795,-0.027787471,-0.0018440977,-0.049635712,0.03167726,-0.043564193,-0.06561204,0.03037887,-0.041603796,-0.02905943,0.009738544,0.016558835,-0.02644604,-0.06744654,0.01155637,-0.06893679,-0.0103597455,-0.043755185,-0.07268028,7.833859e-34,-0.005956996,-0.040453963,0.050168253,0.059985574,0.009961296,-0.050798282,-0.06136488,-0.0073432894,-0.10453577,-0.018291662,-0.014843988,-0.011340089,-0.013191095,-0.012947864,-0.00086920214,-0.083822355,0.030579185,-0.048132304,0.013057821,-6.1733626e-05,0.0019940995,0.10628658,-0.031600535,-0.01504779,-0.024794215,-0.14566287,0.035705645,-0.025647419,-0.023465956,0.035953492,0.09288997,-0.036285292,0.057086594,0.10833889,-0.05812886,-0.055448845,-0.033225786,-0.11123893,-0.012575019,-0.002432821,0.052890435,0.054795157,0.010466285,0.10910295,0.01071162,-0.0040351655,0.03365994,0.0056594927,0.09436325,0.014507957,-0.03175911,0.0415346,-0.0071940226,0.026056143,-0.043890845,-0.004608605,0.01707624,-0.037652943,0.0031398013,0.072241716,0.020613251,0.019595923,-0.052200295,-0.12000051,0.059130426,0.06640076,-0.09907184,-0.0002457695,0.029217256,0.009599628,0.0036217081,-0.0078412015,0.009421902,-0.024380066,0.043407917,0.045093358,0.05217699,0.05819704,0.077561684,-0.00939404,0.006579803,0.017618567,-0.024247466,0.08444373,-0.08129944,-0.04361507,-0.022912465,0.05099261,-0.055124134,0.0028957415,-0.06137243,0.005181841,0.026795967,-0.027772648,-0.031051185,-1.6231443e-33,-0.039812606,0.0025254744,0.06159974,0.043134827,0.03708294,0.09858988,0.06181552,-0.04977805,0.005567991,0.095353805,0.058868155,0.09245425,0.089948446,-0.099997036,0.051524475,-0.035741385,0.1756805,0.077980384,0.014524652,-0.0028589945,-0.045088347,0.079955466,-0.04813652,-0.08237912,-0.10985452,0.06927696,0.03686404,-0.09166495,-0.047978394,0.032102786,-0.010761262,-0.12219495,-0.03667072,0.038315,-0.047159903,-0.08453314,0.03405724,-0.04017531,-0.08403106,0.034629967,0.025290452,-0.02936653,0.06879521,0.11425385,0.08090894,-0.094053425,-0.05580996,0.068993635,-0.01225315,-0.051386647,-0.0761713,-0.06251783,0.0048935404,-0.025181446,-0.0046167667,-0.039373197,0.02582568,-0.010472909,0.022499617,-0.013770283,0.06800641,0.0074032424,-0.07027541,0.052878648,0.0099699795,0.014629984,-0.045088068,-0.0015160928,-0.09627551,0.005013059,-0.07471868,0.04840879,0.03424519,-0.0114674065,0.03350223,0.020394921,0.008194164,-0.039353486,0.011113899,0.018434444,-0.004629427,-0.018588955,0.013080188,-0.0061621624,0.01326249,-0.0017063081,0.021001391,-0.021580687,0.10741204,0.027087213,-0.07675325,0.09663225,0.06539953,-0.003634458,0.09498914,-1.9557142e-08,0.029523669,-0.04073868,0.1046864,-0.06238774,0.027540458,-0.09128445,-0.018837122,0.02084581,0.037179504,0.045765415,0.017743211,0.11777118,0.015876481,-0.069346786,0.0072991084,0.024348374,0.090347946,0.025829116,0.022696111,0.00015847798,0.015304187,0.0031311293,0.03851923,-0.03881274,-0.03946563,-0.00017774045,-0.021389099,-0.0059067057,-0.032897275,0.0041144933,0.106345,-0.05646744,0.033338245,-0.06213615,-0.014041078,-0.04605858,-0.049242042,0.0021225638,-0.002553255,0.019851899,0.08484936,-0.088949844,0.05695446,0.08868877,0.0598331,0.08715476,0.042975545,-0.043411143,-0.048933998,-0.0032530269,-0.0063705295,0.014024573,0.010929644,-0.027481137,-0.06402577,-0.07966381,0.0025963043,-0.014088516,0.036239687,0.03623824,0.004698835,0.020206867,0.051952124,0.08839075
/home/philipslinux/Documents/trieu_others/smark_picking_saffron/inpainting/dataset_masked/train/images/240_F_467508907_zieFozN8V3JYbkeQZNgAgwOEdJrxc8Kg_jpg.rf.0ca03d83ce1c81134dae0b09094fce48.jpg,0.05768324,-0.05461968,-0.05068907,0.07171226,0.033616133,0.05358445,-0.050494887,-0.05292531,0.022878883,-0.0440103,0.052381113,-0.09087955,0.044205006,-0.06225052,0.02127808,0.03741568,-0.07382645,-0.049749576,-0.007816463,0.04304418,0.07315904,0.030087436,0.021076405,0.052415233,0.0190486,-0.0133683765,-0.071679175,0.016960321,-0.0027823092,-0.038924713,-0.00068897137,0.06770133,0.0028589547,-0.023513604,0.084189445,-0.044101004,-0.040094893,0.06402533,0.0537575,0.02422097,0.043614402,-0.04949578,0.02432395,-0.001379524,-0.027259586,0.0042267377,-0.09910586,-0.02350857,0.043608468,-0.0056670387,0.0013383091,-0.020845227,-0.1556703,0.04119954,0.04367222,-0.0390382,-0.07630795,0.0025012258,0.0074478574,0.07340417,0.037001234,-0.048031546,-0.024734275,-0.028245654,-0.020551631,-0.038723193,-0.1418819,-0.041001566,0.04275181,-0.02369022,0.07050299,0.05812401,0.030659648,0.045097545,-0.06824198,-0.003739562,-0.024883008,0.016040264,-0.02122112,-0.00925854,-0.0658955,-0.030774342,-0.0292589,0.031960227,0.017331125,0.0766663,0.001784844,0.016525773,-0.008018495,-0.015114472,0.00513753,-0.009555074,0.0056880107,-0.019442068,-0.07028818,-0.06202657,0.010769431,-0.021790804,-0.032942757,0.025885342,0.005473229,-0.02075174,0.085059464,0.006678657,0.0038644832,-0.0032332332,-0.039491475,-0.077780984,-0.06325449,-0.020396508,-0.011253439,-0.07453938,0.037401434,-0.05799644,-0.0814444,0.0004164691,-0.04977256,-0.032332275,-0.007655903,0.017482942,-0.026190149,-0.06515559,0.007606847,-0.05445012,-0.02709941,-0.023321945,-0.06839196,9.792668e-34,-0.0065226606,-0.04626824,0.057619687,0.048701487,0.00083793676,-0.055771686,-0.06343379,0.0011758342,-0.10351797,-0.00902236,-0.012522133,0.0001614053,-0.012683612,-0.024189433,0.004825159,-0.07651552,0.037733383,-0.04261745,0.0034454975,0.0050083543,0.008799205,0.10200575,-0.045941208,-0.015438632,-0.026114412,-0.13096774,0.020499162,-0.048125237,-0.041091897,0.029950397,0.08772963,-0.041687194,0.06898621,0.10110181,-0.05195179,-0.038105555,-0.041319095,-0.11442302,-0.012693745,0.0029640382,0.032800317,0.054484956,0.0044819377,0.09324019,0.0132191405,-0.0043626144,0.04552729,0.010807436,0.081285186,0.02323935,-0.026267663,0.0571333,-0.017344212,0.030560805,-0.047752388,-0.012237348,0.015244331,-0.026788987,-0.02034496,0.06543885,0.028660811,0.01656663,-0.056939926,-0.1283911,0.055385053,0.06400588,-0.10583572,-0.004645843,0.03340221,-0.0011766285,0.0027057047,-0.002265617,0.004674733,-0.01668685,0.04928927,0.04261131,0.06594599,0.040744543,0.07901488,-0.0027649552,0.026683308,0.022530155,-0.026949225,0.058494154,-0.09228982,-0.04204844,-0.02164214,0.0632486,-0.051666863,-0.011885742,-0.038351476,0.0018921292,0.032748446,-0.028458482,-0.03950241,-1.5600827e-33,-0.03670226,-0.0017420582,0.05158497,0.04619588,0.02607636,0.11822532,0.07227911,-0.05262972,0.021850618,0.09438265,0.06772204,0.106576085,0.09547039,-0.096860014,0.058106396,-0.037696056,0.16536373,0.09294493,0.00093834917,0.008930472,-0.039280247,0.09877355,-0.058968376,-0.07507839,-0.110925406,0.07881954,0.0330939,-0.0745782,-0.03835663,0.021468928,0.0058846013,-0.117812626,-0.037324063,0.015324721,-0.052677702,-0.08875093,0.03294193,-0.032696806,-0.069345474,0.031192144,0.030007543,-0.017277148,0.059766058,0.122502714,0.07552459,-0.10049457,-0.059399683,0.07180663,0.0017568305,-0.06502007,-0.07826089,-0.05482043,0.008650162,-0.011081754,0.0025611639,-0.036565326,0.022485387,-0.00831669,0.022790594,-0.02160123,0.06560264,0.014736176,-0.054408453,0.054875858,0.0056578685,0.034478776,-0.03898841,0.019629104,-0.101683505,-0.015565656,-0.054246455,0.060988393,0.042761173,-0.024469968,0.027874239,0.018502606,0.0138181,-0.045682494,0.020168982,0.011262541,-0.0037448208,-0.0028580255,0.0073865345,-0.0038765494,0.024352947,-0.0014217888,0.00953693,-0.021485988,0.104723066,0.030443102,-0.08081,0.08637085,0.06673508,-0.006804684,0.095921695,-1.9911834e-08,0.022547835,-0.04026163,0.10375341,-0.056244355,0.030446861,-0.079811744,-0.01363224,0.00010798978,0.03753016,0.048132453,0.02941052,0.111331046,-0.004026156,-0.06465158,0.0076605855,0.020666024,0.08956091,0.033493247,0.016529594,0.0035351443,-0.0007120257,0.010901001,0.017328402,-0.04449977,-0.0336429,-0.0071531166,-0.018777622,-0.0005509486,-0.03319696,-0.003346193,0.10088172,-0.05657832,0.03605979,-0.051962595,-0.02414065,-0.027552465,-0.030850071,0.032453176,-0.017941132,0.0143879475,0.07387821,-0.09869263,0.06298965,0.074905165,0.046909265,0.08350444,0.036131635,-0.043474633,-0.059112933,-0.0088133495,-0.0004289482,0.031149892,-0.0043012514,-0.029165206,-0.06788721,-0.08771292,0.0053665857,-0.012571753,0.020379718,0.03713933,0.0019793846,0.01925157,0.05479311,0.0799579
/home/philipslinux/Documents/trieu_others/smark_picking_saffron/inpainting/dataset_masked/train/images/images-2022-08-07T114850-402_jpg.rf.b57887b30c4be3762ffecbe7bfce1e94.jpg,0.058876142,-0.0675718,-0.052057486,0.06982193,0.03153727,0.059669726,-0.03891301,-0.054006677,0.026737215,-0.039337557,0.042695075,-0.099678285,0.05466125,-0.0659372,0.017531827,0.0323251,-0.07300259,-0.057282615,-0.015445825,0.042882107,0.06432974,0.036128856,0.022684654,0.05998187,0.022425104,-0.04435757,-0.070421256,0.00013603953,-0.00044334301,-0.038495623,-0.008437219,0.06569464,0.0245298,-0.00735677,0.09996742,-0.030276317,-0.04819554,0.05236711,0.050056357,0.043210726,0.05014571,-0.042053167,0.022236615,-0.0052204374,-0.026412873,-0.00046973987,-0.1064515,-0.009508355,0.03610855,-0.011251122,0.013059263,-0.010944352,-0.16521324,0.04935442,0.048301715,-0.07200519,-0.06893546,0.00046585835,-0.004350347,0.07160463,0.028549742,-0.06803888,-0.01207228,-0.03874645,-0.02951067,-0.027339146,-0.13871802,-0.04500927,0.05472463,-0.011896993,0.059728783,0.05579329,0.030669605,0.058672164,-0.079595186,-0.00293562,-0.025155492,0.010753659,-0.02448846,-0.0092012845,-0.07424648,-0.022853622,-0.029270206,0.021221837,0.021166194,0.07781136,0.004235383,0.03162226,0.00043970105,-0.0061510657,0.0007793823,-0.013326146,0.0066062566,-0.020946335,-0.07080159,-0.06269132,0.01037686,-0.023367302,-0.025164362,0.013622527,0.0033274447,-0.019176295,0.10445652,0.017353812,-0.02015998,0.017612519,-0.038618978,-0.08102081,-0.069976486,-0.013283032,-0.03002906,-0.088449866,0.03779878,-0.07185297,-0.08859431,-0.015755426,-0.049952433,-0.033663508,-0.0031025384,0.02421354,-0.025471851,-0.06083047,0.030936083,-0.04868084,-0.03986488,-0.01946865,-0.07041298,1.2739215e-33,0.0025561627,-0.04554465,0.057936344,0.043052725,-0.0043062484,-0.0553347,-0.047861595,0.0038154852,-0.102693245,-0.011325345,-0.009003472,0.028949473,-0.0046044304,-0.022821883,0.000678801,-0.06251577,0.045161776,-0.051624972,-0.0016156733,0.005822731,-0.0020871346,0.083521284,-0.05528457,-0.0152747575,-0.044199295,-0.13018686,0.014475595,-0.0361273,-0.050062984,0.020763747,0.08517498,-0.036615405,0.05810113,0.09312246,-0.05369396,-0.019322166,-0.03215757,-0.10963644,-0.0008117283,-0.0038300438,0.025685148,0.052018996,0.006574354,0.08709886,0.010527287,0.002247995,0.035854015,0.016105263,0.07461437,0.028456733,-0.029226474,0.061919563,-0.024159113,0.015958095,-0.048186105,-0.012959452,0.007265294,-0.02299366,-0.025660345,0.06600931,0.022124888,0.008843443,-0.058342125,-0.1300234,0.057795536,0.06467163,-0.10199821,0.006032052,0.032369602,-0.0030822759,0.0006830802,0.002861176,-0.010446339,-0.032414842,0.043629017,0.05933222,0.06870076,0.042607073,0.06374259,0.013580776,0.016094418,0.023360128,-0.030961752,0.06338213,-0.08064202,-0.02111853,-0.017582051,0.055314984,-0.031818077,-0.031388864,-0.021201067,-0.004283672,0.0398761,-0.03405091,-0.06016864,-1.8239485e-33,-0.042370927,0.001325249,0.041717954,0.0447536,0.018451722,0.13108009,0.06666526,-0.050459255,0.0148272365,0.08248382,0.063678026,0.113721505,0.07296838,-0.109745026,0.034341786,-0.037451092,0.155796,0.08285,-0.0013114495,0.016899588,-0.0480469,0.09664212,-0.061596375,-0.061633475,-0.12243594,0.079746105,0.026770422,-0.077901155,-0.01830518,0.02458362,0.022548947,-0.115587555,-0.021076407,0.025921749,-0.055306952,-0.08671619,0.044558756,-0.022543248,-0.05357234,0.043689538,0.034296885,-0.020771738,0.06957662,0.111116625,0.07112746,-0.103843726,-0.07374726,0.06985676,0.003555342,-0.045377705,-0.08098841,-0.032880906,0.0077292845,-0.026531884,0.010963281,-0.034662932,0.027941808,-0.0012131036,0.019337686,-0.020593556,0.057777293,0.023106838,-0.05419722,0.061426707,0.0041951155,0.03202425,-0.03703754,0.009646511,-0.099342,-0.027607428,-0.038750526,0.05762629,0.051297624,-0.029140772,0.032878686,0.014082428,0.00969436,-0.051527143,0.0127692325,0.014703528,0.00095760025,0.0019973004,0.0012351109,-0.0049294885,0.03279297,0.0084722405,0.025443273,-0.018701216,0.11300897,0.041118827,-0.07175715,0.0864266,0.082019925,-0.000832843,0.08910706,-1.9549557e-08,0.023969341,-0.038468,0.10250299,-0.05616625,0.03294873,-0.071387716,-0.017068068,-0.0021759227,0.03456922,0.04546985,0.050327946,0.106066294,-0.014081527,-0.059704997,0.01925554,0.0070208036,0.07810911,0.0381331,0.024391023,0.011957308,-0.00022494301,0.019765403,0.0070308982,-0.058419965,-0.016460357,-0.020342076,-0.020434855,0.0039301473,-0.035971366,-0.009256283,0.10121589,-0.057068866,0.039384928,-0.049012557,-0.0108725615,-0.013782754,-0.029664358,0.025101032,-0.025493618,0.018651003,0.0718732,-0.10889995,0.06134778,0.055505984,0.03811087,0.090237394,0.019191371,-0.043742474,-0.061873667,-0.01042172,-0.017592708,0.03741065,-0.0103907455,-0.03456265,-0.060749426,-0.07053153,0.012199917,-0.01900789,0.045115646,0.03176872,-0.012605961,0.024869636,0.053014442,0.07556962
/home/philipslinux/Documents/trieu_others/smark_picking_saffron/inpainting/dataset_masked/train/images/images-2022-08-07T114904-627_jpg.rf.5432710dd180c4272008d8e73f7def07.jpg,0.068228126,-0.04796755,-0.048628133,0.07737546,0.031185508,0.06939955,-0.032659624,-0.06042963,0.038118016,-0.047319748,0.06571061,-0.10847835,0.037759125,-0.07105417,0.017772662,0.042502623,-0.08863332,-0.0708888,-0.017030746,0.034139868,0.061703455,0.030460922,0.024460416,0.040166475,0.031155037,-0.023067366,-0.081083454,0.0017091082,0.005770502,-0.03833233,-0.014872994,0.062407307,0.0046587978,-0.023971917,0.11892264,-0.04198502,-0.033910014,0.051146757,0.044728473,0.03510727,0.05045867,-0.06067798,0.019008761,0.00404804,-0.010274436,0.01837022,-0.08454634,-0.013588144,0.028880063,-0.034837462,-0.004739423,-0.016871985,-0.17684016,0.056202825,0.03839493,-0.041238803,-0.07864217,0.024011696,-0.015102913,0.071982995,0.041772593,-0.0669845,-0.01036008,-0.03262276,-0.03137967,-0.03451604,-0.15150619,-0.050192576,0.040023107,-0.0016666906,0.067984715,0.07838295,0.033881754,0.050044745,-0.06665454,0.00043049597,-0.034095567,0.011276171,-0.014600054,-0.015265636,-0.070509285,-0.06326756,-0.034361966,0.039263677,0.008351198,0.07947952,-0.021685578,0.015952162,-0.026936008,0.005078162,0.0033991877,-0.01573699,-0.0007244114,-0.013296998,-0.062007114,-0.052987255,0.011479875,-0.018465685,-0.030586237,0.035274297,-0.004269763,-0.02625398,0.092448495,0.002748292,-0.007989609,0.033580262,-0.025728827,-0.07618486,-0.06925833,-0.011246764,-0.012665485,-0.091553204,0.0516406,-0.076461665,-0.08323278,-0.01560034,-0.03943641,-0.03993314,-0.017165469,0.027881987,-0.019053763,-0.040002007,0.022346167,-0.044694137,-0.054298665,-0.01924284,-0.05566041,1.7495474e-33,0.0033657486,-0.055401545,0.064192384,0.043925326,-0.0066593764,-0.05508923,-0.0587996,0.0032383294,-0.07593459,-0.009780773,-0.01539156,0.0075216074,0.009650942,-0.017483095,0.03469417,-0.05217468,0.07162567,-0.045820538,0.017844295,0.0028090803,0.007573945,0.09855672,-0.061455302,-0.02233814,-0.030155597,-0.11565213,0.022224685,-0.05741089,-0.042821348,0.020341095,0.06504288,-0.036649592,0.06965937,0.11231185,-0.04040975,-0.02152865,-0.043576244,-0.10650293,-0.022848357,-0.01099884,0.017366743,0.04484995,0.0055960664,0.076716505,0.015684452,0.0055248053,0.05015474,0.0072482307,0.07056991,0.055743158,-0.032241426,0.073813535,-0.029730901,0.03130674,-0.04639713,-0.019596731,-0.013007743,-0.0059063467,-0.037472323,0.056102943,0.030302605,0.016529696,-0.054167476,-0.13723038,0.048417766,0.06786821,-0.09598235,-0.0074327877,0.034256104,0.0010517633,0.0040449337,-0.0075653377,0.0077719986,-0.0077536656,0.051367976,0.04658279,0.0610155,0.022779558,0.06393214,0.021071907,0.041484576,0.015119019,-0.02214869,0.055517323,-0.0752592,-0.03201251,-0.011596269,0.052792575,-0.015096877,-0.021547884,-0.028464518,0.0037602957,0.02588467,-0.03929723,-0.04252843,-2.479192e-33,-0.033185776,0.014040249,0.02551512,0.027305653,-0.0005755453,0.12332324,0.06418451,-0.042940807,0.029025381,0.07274625,0.09631197,0.104427576,0.08720118,-0.10142522,0.032717258,-0.037968334,0.13587047,0.08020068,-0.0111184195,0.023184706,-0.034914456,0.11224966,-0.0610531,-0.05971362,-0.100441314,0.078790806,0.032060932,-0.07101477,-0.010176535,0.028133886,0.045795772,-0.11584461,-0.044901256,0.028194873,-0.058166876,-0.104949795,0.05394579,-0.011006045,-0.06639899,0.03600731,0.037873145,-0.0188134,0.061145186,0.12702619,0.06455768,-0.105056696,-0.057315964,0.061050527,-0.002300219,-0.058120914,-0.07234,-0.05477478,0.009834609,-0.030017646,0.020628594,-0.029652584,0.027967671,-0.020620663,0.03251921,-0.033134416,0.05848043,0.02460108,-0.047089078,0.039608724,0.0072474317,0.036459774,-0.05582264,0.029377062,-0.09496484,-0.0385664,-0.04962998,0.04316598,0.042058446,-0.04352327,0.012223093,0.045293313,-0.016312946,-0.052693244,0.017577287,-0.00011806938,-0.0009667075,0.0034098013,0.012961837,-0.00883235,0.029718377,-0.010529172,0.015371864,-0.018505055,0.094451696,0.02598924,-0.05403335,0.08191807,0.09171688,0.012095501,0.086694494,-1.9287864e-08,0.01499071,-0.03891403,0.09317108,-0.057246435,0.02329567,-0.071534164,-0.0095837675,0.005777034,0.044827882,0.056513753,0.04691909,0.10965586,-0.040758736,-0.056227267,0.008760954,0.010114401,0.07952163,0.035386838,0.011417758,-0.006577941,-0.014809222,0.013635511,-0.0095695825,-0.041852154,-0.0065818205,-0.01531973,-0.01929106,-0.022168996,-0.029305348,0.005701357,0.104428954,-0.0616814,0.03975552,-0.05446694,-0.031120844,-0.029070359,-0.012288967,0.032982565,-0.03096133,0.012984394,0.06685929,-0.10119205,0.0597906,0.054364357,0.0325128,0.06466653,0.023925379,-0.039333846,-0.076628454,-0.027390085,-0.013922139,0.043984327,-0.016511254,-0.032165773,-0.058913663,-0.069635816,0.016496705,0.00949304,0.030295292,0.02849533,-0.010829844,0.028254807,0.06337751,0.074218735
/home/philipslinux/Documents/trieu_others/smark_picking_saffron/inpainting/dataset_masked/train/images/images-2022-08-07T114859-068_jpg.rf.f96300fca47118b745c3dea375a2f156.jpg,0.058876142,-0.0675718,-0.052057486,0.06982193,0.03153727,0.059669726,-0.03891301,-0.054006677,0.026737215,-0.039337557,0.042695075,-0.099678285,0.05466125,-0.0659372,0.017531827,0.0323251,-0.07300259,-0.057282615,-0.015445825,0.042882107,0.06432974,0.036128856,0.022684654,0.05998187,0.022425104,-0.04435757,-0.070421256,0.00013603953,-0.00044334301,-0.038495623,-0.008437219,0.06569464,0.0245298,-0.00735677,0.09996742,-0.030276317,-0.04819554,0.05236711,0.050056357,0.043210726,0.05014571,-0.042053167,0.022236615,-0.0052204374,-0.026412873,-0.00046973987,-0.1064515,-0.009508355,0.03610855,-0.011251122,0.013059263,-0.010944352,-0.16521324,0.04935442,0.048301715,-0.07200519,-0.06893546,0.00046585835,-0.004350347,0.07160463,0.028549742,-0.06803888,-0.01207228,-0.03874645,-0.02951067,-0.027339146,-0.13871802,-0.04500927,0.05472463,-0.011896993,0.059728783,0.05579329,0.030669605,0.058672164,-0.079595186,-0.00293562,-0.025155492,0.010753659,-0.02448846,-0.0092012845,-0.07424648,-0.022853622,-0.029270206,0.021221837,0.021166194,0.07781136,0.004235383,0.03162226,0.00043970105,-0.0061510657,0.0007793823,-0.013326146,0.0066062566,-0.020946335,-0.07080159,-0.06269132,0.01037686,-0.023367302,-0.025164362,0.013622527,0.0033274447,-0.019176295,0.10445652,0.017353812,-0.02015998,0.017612519,-0.038618978,-0.08102081,-0.069976486,-0.013283032,-0.03002906,-0.088449866,0.03779878,-0.07185297,-0.08859431,-0.015755426,-0.049952433,-0.033663508,-0.0031025384,0.02421354,-0.025471851,-0.06083047,0.030936083,-0.04868084,-0.03986488,-0.01946865,-0.07041298,1.2739215e-33,0.0025561627,-0.04554465,0.057936344,0.043052725,-0.0043062484,-0.0553347,-0.047861595,0.0038154852,-0.102693245,-0.011325345,-0.009003472,0.028949473,-0.0046044304,-0.022821883,0.000678801,-0.06251577,0.045161776,-0.051624972,-0.0016156733,0.005822731,-0.0020871346,0.083521284,-0.05528457,-0.0152747575,-0.044199295,-0.13018686,0.014475595,-0.0361273,-0.050062984,0.020763747,0.08517498,-0.036615405,0.05810113,0.09312246,-0.05369396,-0.019322166,-0.03215757,-0.10963644,-0.0008117283,-0.0038300438,0.025685148,0.052018996,0.006574354,0.08709886,0.010527287,0.002247995,0.035854015,0.016105263,0.07461437,0.028456733,-0.029226474,0.061919563,-0.024159113,0.015958095,-0.048186105,-0.012959452,0.007265294,-0.02299366,-0.025660345,0.06600931,0.022124888,0.008843443,-0.058342125,-0.1300234,0.057795536,0.06467163,-0.10199821,0.006032052,0.032369602,-0.0030822759,0.0006830802,0.002861176,-0.010446339,-0.032414842,0.043629017,0.05933222,0.06870076,0.042607073,0.06374259,0.013580776,0.016094418,0.023360128,-0.030961752,0.06338213,-0.08064202,-0.02111853,-0.017582051,0.055314984,-0.031818077,-0.031388864,-0.021201067,-0.004283672,0.0398761,-0.03405091,-0.06016864,-1.8239485e-33,-0.042370927,0.001325249,0.041717954,0.0447536,0.018451722,0.13108009,0.06666526,-0.050459255,0.0148272365,0.08248382,0.063678026,0.113721505,0.07296838,-0.109745026,0.034341786,-0.037451092,0.155796,0.08285,-0.0013114495,0.016899588,-0.0480469,0.09664212,-0.061596375,-0.061633475,-0.12243594,0.079746105,0.026770422,-0.077901155,-0.01830518,0.02458362,0.022548947,-0.115587555,-0.021076407,0.025921749,-0.055306952,-0.08671619,0.044558756,-0.022543248,-0.05357234,0.043689538,0.034296885,-0.020771738,0.06957662,0.111116625,0.07112746,-0.103843726,-0.07374726,0.06985676,0.003555342,-0.045377705,-0.08098841,-0.032880906,0.0077292845,-0.026531884,0.010963281,-0.034662932,0.027941808,-0.0012131036,0.019337686,-0.020593556,0.057777293,0.023106838,-0.05419722,0.061426707,0.0041951155,0.03202425,-0.03703754,0.009646511,-0.099342,-0.027607428,-0.038750526,0.05762629,0.051297624,-0.029140772,0.032878686,0.014082428,0.00969436,-0.051527143,0.0127692325,0.014703528,0.00095760025,0.0019973004,0.0012351109,-0.0049294885,0.03279297,0.0084722405,0.025443273,-0.018701216,0.11300897,0.041118827,-0.07175715,0.0864266,0.082019925,-0.000832843,0.08910706,-1.9549557e-08,0.023969341,-0.038468,0.10250299,-0.05616625,0.03294873,-0.071387716,-0.017068068,-0.0021759227,0.03456922,0.04546985,0.050327946,0.106066294,-0.014081527,-0.059704997,0.01925554,0.0070208036,0.07810911,0.0381331,0.024391023,0.011957308,-0.00022494301,0.019765403,0.0070308982,-0.058419965,-0.016460357,-0.020342076,-0.020434855,0.0039301473,-0.035971366,-0.009256283,0.10121589,-0.057068866,0.039384928,-0.049012557,-0.0108725615,-0.013782754,-0.029664358,0.025101032,-0.025493618,0.018651003,0.0718732,-0.10889995,0.06134778,0.055505984,0.03811087,0.090237394,0.019191371,-0.043742474,-0.061873667,-0.01042172,-0.017592708,0.03741065,-0.0103907455,-0.03456265,-0.060749426,-0.07053153,0.012199917,-0.01900789,0.045115646,0.03176872,-0.012605961,0.024869636,0.053014442,0.07556962
/home/philipslinux/Documents/trieu_others/smark_picking_saffron/inpainting/dataset_masked/train/images/1000_F_470476375_IsaVN03YeqKqOBG89K0RbwntVjjaVS9u_jpg.rf.95056d78e3011891a7020eaa0617b8cc.jpg,0.09256258,-0.05553324,-0.044458564,0.058843035,0.023854965,0.077591404,-0.05282766,-0.06525011,0.025323128,-0.016154168,0.043970276,-0.08675807,0.04827202,-0.060468923,0.008417003,0.050197147,-0.0738651,-0.036288287,-0.04166842,0.02417072,0.058213428,0.018374173,0.033291098,0.054206643,0.010601765,-0.034889396,-0.06484166,-0.025166918,0.0006595184,-0.03782622,-0.012811933,0.0839278,0.027236905,-0.02965073,0.08947676,-0.025757467,-0.061152156,0.053549867,0.062300555,0.060669422,0.04587913,-0.04637096,0.020954784,0.008674119,-0.020460438,0.010393493,-0.09037197,-0.039187793,0.06801818,-0.024856132,0.012484651,-0.0062163346,-0.16428728,0.04735033,0.027523346,-0.09267121,-0.08168836,-0.019748373,0.0041412,0.090360075,0.05673537,-0.058361907,-0.018397158,-0.033279397,-0.036946747,-0.004813021,-0.1353925,-0.0357717,0.04358114,-0.015830427,0.07512273,0.07039878,0.04276618,0.0589791,-0.07307459,-0.009241145,-0.012226335,-0.0012875191,-0.025122333,-0.013301837,-0.057628654,-0.015108341,-0.025551207,0.01699535,0.016095582,0.07734898,-0.013365684,-0.0068486165,-0.0067313234,0.0020318758,-0.0020933584,-0.0063522677,-0.009749106,-0.02158954,-0.07852912,-0.059776288,0.009718195,-0.052637633,-0.015694255,0.020410476,0.01978681,-0.023967361,0.08370172,0.014512599,-0.009010316,-0.0007752147,-0.023894794,-0.062432814,-0.088121,-0.009627964,-0.028630309,-0.08045098,0.034971617,-0.05702074,-0.088069566,-0.009321165,-0.06641207,-0.058439836,-0.01775988,0.026926175,-0.029439323,-0.0405406,0.046890724,-0.058349133,-0.02093003,-0.017300932,-0.07173348,1.034947e-33,0.008330892,-0.027286265,0.07674372,0.0517963,0.0035578257,-0.059249178,-0.05082029,-0.00075663166,-0.11346229,-0.011466857,-0.0047398717,-0.004598168,-0.0030190465,-0.027703933,0.009437838,-0.07054283,0.044214785,-0.048629545,0.0015308436,0.01583596,-0.0024037187,0.092776455,-0.051296312,0.00014641236,-0.052255146,-0.09857313,0.020093022,-0.038288392,-0.039001103,0.028255353,0.07118798,-0.021623513,0.055703007,0.076409735,-0.047816645,-0.026934218,-0.037300132,-0.116676204,-0.006503503,0.0076992125,0.01691096,0.040678952,0.007854983,0.09315771,0.018147,0.016359681,0.03446579,0.0012416595,0.077668205,0.0362369,-0.023272386,0.057106096,-0.008894872,0.030359637,-0.050825942,-0.024238165,-0.016589839,-0.03434879,-0.013536783,0.067271896,0.032740917,0.015662137,-0.071987145,-0.124289885,0.07309233,0.058393594,-0.08869039,-0.0022060887,0.02250884,-0.0010954441,0.020794166,-0.010844327,-0.007939863,-0.024067104,0.051203806,0.051887367,0.065641694,0.044814773,0.07056026,0.00016942051,0.021568244,0.036813617,-0.01820911,0.07044734,-0.072587825,-0.034147583,-0.00029738707,0.054625247,-0.021380454,-0.02247296,-0.02325374,-0.013292723,0.046657685,-0.034280617,-0.073386274,-1.3940536e-33,-0.025184682,0.016910594,0.035915956,0.051124565,0.016794657,0.11255755,0.06426091,-0.028686691,0.0047839377,0.08964589,0.077071644,0.09792502,0.09891588,-0.10040191,0.048559684,-0.01953369,0.14644751,0.073950835,0.0025333557,0.011588739,-0.038801976,0.094856836,-0.06414578,-0.06532931,-0.09762938,0.07933363,0.039619487,-0.092632726,-0.030308599,0.012424772,0.009393687,-0.1310572,-0.03152453,0.04284933,-0.05253939,-0.09834139,0.043648675,-0.00056780415,-0.059886705,0.044681247,0.03463247,-0.017756311,0.07409182,0.11503578,0.057424493,-0.09838376,-0.07636153,0.08474848,0.010393577,-0.036250588,-0.065804064,-0.06955804,0.0087578315,-0.03130784,0.0070930845,-0.03316499,0.030296892,-0.014099858,0.012442619,-0.016490586,0.042546835,0.00083015236,-0.030519322,0.050413325,0.011112832,0.03361216,-0.045568425,0.006797592,-0.1115405,-0.041809667,-0.06922347,0.037960354,0.024887815,-0.017883733,0.035218135,0.018391112,-0.0101602115,-0.056891628,0.006233486,0.03319658,-0.025425093,-0.010992831,0.017219083,-0.01918772,0.015370487,-0.009737321,0.024367146,-0.0118714785,0.13018139,0.037485193,-0.061376482,0.08756021,0.09402151,0.006643592,0.09459007,-1.9798437e-08,0.029010806,-0.01765231,0.10157807,-0.05170467,0.023579817,-0.07979215,-0.007880092,0.012220637,0.038127434,0.042874556,0.045008663,0.103619836,-0.03219069,-0.052924108,0.025217326,-0.004240761,0.07341389,0.023748819,0.020881789,-0.00040442983,0.0013587286,0.0183234,0.0041038874,-0.045631696,-0.013318847,-0.00404736,-0.0070625027,0.002832527,-0.035666563,-0.0129265655,0.11112769,-0.05167296,0.030141005,-0.056141466,-0.03214223,-0.026060924,-0.027906818,0.020584438,-0.01603636,0.031166002,0.05231567,-0.11121243,0.062096145,0.063851885,0.025981462,0.07969047,-0.004388182,-0.042709854,-0.05119112,-0.008652317,-0.028066957,0.040863436,-0.008927418,-0.020036502,-0.041661184,-0.075838245,0.021372158,-0.024275009,0.043989338,0.015717791,-0.008552201,0.01938776,0.04684515,0.078167364
/home/philipslinux/Documents/trieu_others/smark_picking_saffron/inpainting/dataset_masked/train/images/1000_F_542712179_CP6NBzcnDO4wHRLlUnAASECL0lqgATnc_jpg.rf.0f5df52f1ebb4487ba85fc0f5089fd5e.jpg,0.05768324,-0.05461968,-0.05068907,0.07171226,0.033616133,0.05358445,-0.050494887,-0.05292531,0.022878883,-0.0440103,0.052381113,-0.09087955,0.044205006,-0.06225052,0.02127808,0.03741568,-0.07382645,-0.049749576,-0.007816463,0.04304418,0.07315904,0.030087436,0.021076405,0.052415233,0.0190486,-0.0133683765,-0.071679175,0.016960321,-0.0027823092,-0.038924713,-0.00068897137,0.06770133,0.0028589547,-0.023513604,0.084189445,-0.044101004,-0.040094893,0.06402533,0.0537575,0.02422097,0.043614402,-0.04949578,0.02432395,-0.001379524,-0.027259586,0.0042267377,-0.09910586,-0.02350857,0.043608468,-0.0056670387,0.0013383091,-0.020845227,-0.1556703,0.04119954,0.04367222,-0.0390382,-0.07630795,0.0025012258,0.0074478574,0.07340417,0.037001234,-0.048031546,-0.024734275,-0.028245654,-0.020551631,-0.038723193,-0.1418819,-0.041001566,0.04275181,-0.02369022,0.07050299,0.05812401,0.030659648,0.045097545,-0.06824198,-0.003739562,-0.024883008,0.016040264,-0.02122112,-0.00925854,-0.0658955,-0.030774342,-0.0292589,0.031960227,0.017331125,0.0766663,0.001784844,0.016525773,-0.008018495,-0.015114472,0.00513753,-0.009555074,0.0056880107,-0.019442068,-0.07028818,-0.06202657,0.010769431,-0.021790804,-0.032942757,0.025885342,0.005473229,-0.02075174,0.085059464,0.006678657,0.0038644832,-0.0032332332,-0.039491475,-0.077780984,-0.06325449,-0.020396508,-0.011253439,-0.07453938,0.037401434,-0.05799644,-0.0814444,0.0004164691,-0.04977256,-0.032332275,-0.007655903,0.017482942,-0.026190149,-0.06515559,0.007606847,-0.05445012,-0.02709941,-0.023321945,-0.06839196,9.792668e-34,-0.0065226606,-0.04626824,0.057619687,0.048701487,0.00083793676,-0.055771686,-0.06343379,0.0011758342,-0.10351797,-0.00902236,-0.012522133,0.0001614053,-0.012683612,-0.024189433,0.004825159,-0.07651552,0.037733383,-0.04261745,0.0034454975,0.0050083543,0.008799205,0.10200575,-0.045941208,-0.015438632,-0.026114412,-0.13096774,0.020499162,-0.048125237,-0.041091897,0.029950397,0.08772963,-0.041687194,0.06898621,0.10110181,-0.05195179,-0.038105555,-0.041319095,-0.11442302,-0.012693745,0.0029640382,0.032800317,0.054484956,0.0044819377,0.09324019,0.0132191405,-0.0043626144,0.04552729,0.010807436,0.081285186,0.02323935,-0.026267663,0.0571333,-0.017344212,0.030560805,-0.047752388,-0.012237348,0.015244331,-0.026788987,-0.02034496,0.06543885,0.028660811,0.01656663,-0.056939926,-0.1283911,0.055385053,0.06400588,-0.10583572,-0.004645843,0.03340221,-0.0011766285,0.0027057047,-0.002265617,0.004674733,-0.01668685,0.04928927,0.04261131,0.06594599,0.040744543,0.07901488,-0.0027649552,0.026683308,0.022530155,-0.026949225,0.058494154,-0.09228982,-0.04204844,-0.02164214,0.0632486,-0.051666863,-0.011885742,-0.038351476,0.0018921292,0.032748446,-0.028458482,-0.03950241,-1.5600827e-33,-0.03670226,-0.0017420582,0.05158497,0.04619588,0.02607636,0.11822532,0.07227911,-0.05262972,0.021850618,0.09438265,0.06772204,0.106576085,0.09547039,-0.096860014,0.058106396,-0.037696056,0.16536373,0.09294493,0.00093834917,0.008930472,-0.039280247,0.09877355,-0.058968376,-0.07507839,-0.110925406,0.07881954,0.0330939,-0.0745782,-0.03835663,0.021468928,0.0058846013,-0.117812626,-0.037324063,0.015324721,-0.052677702,-0.08875093,0.03294193,-0.032696806,-0.069345474,0.031192144,0.030007543,-0.017277148,0.059766058,0.122502714,0.07552459,-0.10049457,-0.059399683,0.07180663,0.0017568305,-0.06502007,-0.07826089,-0.05482043,0.008650162,-0.011081754,0.0025611639,-0.036565326,0.022485387,-0.00831669,0.022790594,-0.02160123,0.06560264,0.014736176,-0.054408453,0.054875858,0.0056578685,0.034478776,-0.03898841,0.019629104,-0.101683505,-0.015565656,-0.054246455,0.060988393,0.042761173,-0.024469968,0.027874239,0.018502606,0.0138181,-0.045682494,0.020168982,0.011262541,-0.0037448208,-0.0028580255,0.0073865345,-0.0038765494,0.024352947,-0.0014217888,0.00953693,-0.021485988,0.104723066,0.030443102,-0.08081,0.08637085,0.06673508,-0.006804684,0.095921695,-1.9911834e-08,0.022547835,-0.04026163,0.10375341,-0.056244355,0.030446861,-0.079811744,-0.01363224,0.00010798978,0.03753016,0.048132453,0.02941052,0.111331046,-0.004026156,-0.06465158,0.0076605855,0.020666024,0.08956091,0.033493247,0.016529594,0.0035351443,-0.0007120257,0.010901001,0.017328402,-0.04449977,-0.0336429,-0.0071531166,-0.018777622,-0.0005509486,-0.03319696,-0.003346193,0.10088172,-0.05657832,0.03605979,-0.051962595,-0.02414065,-0.027552465,-0.030850071,0.032453176,-0.017941132,0.0143879475,0.07387821,-0.09869263,0.06298965,0.074905165,0.046909265,0.08350444,0.036131635,-0.043474633,-0.059112933,-0.0088133495,-0.0004289482,0.031149892,-0.0043012514,-0.029165206,-0.06788721,-0.08771292,0.0053665857,-0.012571753,0.020379718,0.03713933,0.0019793846,0.01925157,0.05479311,0.0799579
/home/philipslinux/Documents/trieu_others/smark_picking_saffron/inpainting/dataset_masked/train/images/crocus_sativus_1200a_jpg.rf.d1fca1eb89a697515ba5870578021c39.jpg,0.059389006,-0.076732285,-0.06354694,0.05597815,0.038903706,0.06270054,-0.048944645,-0.075492546,0.031010332,-0.025776597,0.045811135,-0.097375944,0.03709115,-0.06642341,0.03243236,0.033664424,-0.079136744,-0.03431182,-0.02326454,0.03073822,0.074319035,0.035053503,0.048442084,0.06004953,0.02128726,-0.020966914,-0.06569278,-0.01071988,-0.0074305213,-0.037285324,-0.022784835,0.068580516,0.02778592,-0.03833798,0.10099298,-0.03370326,-0.070907846,0.050472792,0.051080775,0.060116354,0.040493634,-0.04218052,0.026917402,-0.0030858342,-0.020015625,0.002202468,-0.11578376,-0.041279048,0.061932605,-0.019970983,0.0045407577,-0.024495298,-0.1555657,0.05256439,0.03012659,-0.075667776,-0.07286054,-0.0045009926,0.0055102436,0.07829895,0.0363053,-0.039553504,-0.014518838,-0.039430223,-0.009066067,-0.018130636,-0.14877717,-0.04578255,0.044241503,-0.004690643,0.061091155,0.056260314,0.02540537,0.052771185,-0.070240416,0.005903742,-0.0014647456,0.010414615,-0.032346357,-0.016487433,-0.061241582,-0.023314953,-0.028543212,0.05291222,0.018778352,0.069418184,-0.018785203,0.011694084,-0.021821475,0.0036865682,-0.014584646,-0.003112803,-0.010219072,-0.016336918,-0.07166945,-0.045854323,0.002086406,-0.037834655,-0.027894102,0.022083675,0.022190746,-0.009924778,0.10213978,0.016011838,-0.0043208683,0.009747431,-0.048765726,-0.06906255,-0.09106321,-0.0051662815,-0.026993174,-0.08733892,0.036173068,-0.07101164,-0.09879179,0.0018971785,-0.055713497,-0.0531561,0.00236079,0.032550126,-0.020221015,-0.052865893,0.02963321,-0.05500223,-0.028099671,-0.01899838,-0.06284325,1.0765966e-33,-0.0031496307,-0.04221196,0.052887168,0.051311508,-0.009104208,-0.045250725,-0.053444587,-0.0061338823,-0.11197521,-0.012856774,-0.006359131,0.00595465,-0.0028981161,-0.029900046,0.001456088,-0.06034625,0.027402407,-0.049770635,-0.007935051,0.012936475,0.023957066,0.07721781,-0.055652007,-0.015587061,-0.049869243,-0.123577,0.0087205395,-0.04013512,-0.04135747,0.021929909,0.099578634,-0.035725206,0.06428573,0.08307172,-0.06014587,-0.02086819,-0.036717687,-0.13286108,-0.013582051,0.02154548,0.030276392,0.042792868,0.016324187,0.09645074,0.011319728,0.026568918,0.042691093,0.0041312864,0.070589244,0.027395412,-0.011997298,0.055326153,-0.0066491,0.031818252,-0.044054486,-0.017989533,-0.00402038,-0.02169907,-0.011808995,0.059110794,0.017623914,0.009341368,-0.050880395,-0.1122919,0.059761845,0.07432894,-0.10858942,0.011963891,0.035173904,-0.004037945,0.0029246318,-0.0044780527,-0.013683409,-0.01746361,0.04485106,0.048001945,0.050230682,0.041497033,0.06832558,-0.007801367,0.028561717,0.02413876,-0.021513628,0.07692195,-0.09314541,-0.035199754,-0.018793104,0.044765957,-0.03822214,-0.023714462,-0.013926016,-0.0024239062,0.049655713,-0.023662861,-0.07056377,-1.5018197e-33,-0.027707674,0.0059081637,0.049336772,0.03460418,0.020918552,0.11134203,0.05964151,-0.032892447,0.011875372,0.081697665,0.06325595,0.100517415,0.096247524,-0.11317824,0.058761474,-0.02065328,0.16316551,0.07700399,0.0012016478,0.010800819,-0.026429048,0.0893062,-0.07402148,-0.061348148,-0.12494166,0.085594736,0.02340351,-0.09317498,-0.030574173,0.02067594,0.010884627,-0.12323887,-0.026521958,0.033080675,-0.043710064,-0.086922854,0.04566124,-0.016897678,-0.06427625,0.039813507,0.035189494,-0.019373242,0.06214289,0.11396497,0.07156843,-0.07904676,-0.065509796,0.07335664,0.006722811,-0.030712316,-0.07953836,-0.074420914,0.023679407,-0.019839616,0.021032277,-0.023542333,0.035613373,-0.02510787,0.023655519,-0.01613592,0.058581047,0.022488786,-0.03735271,0.055226248,0.004917062,0.04340787,-0.04397071,0.011524595,-0.09040271,-0.028636228,-0.06693074,0.05328433,0.030650485,-0.030958788,0.033121917,0.013160627,0.004719958,-0.027407175,0.012600845,0.019101413,0.003969912,-0.0033422923,0.00898119,0.0016527659,0.026810078,-0.002661326,0.01906878,-0.022861812,0.11238559,0.025241716,-0.070694886,0.084083706,0.08265129,0.008463825,0.10678231,-1.9628835e-08,0.032170262,-0.02034961,0.092644565,-0.051741753,0.03058558,-0.07477789,-0.0028530092,0.014056176,0.03602054,0.051983677,0.038247395,0.09793479,-0.020526936,-0.0629805,0.024316765,0.00029309146,0.09223857,0.033138312,0.021014063,-0.0007802252,-0.0044900724,0.021510756,0.017690536,-0.052067548,-0.008585662,0.0048693875,-0.020701755,0.00042851624,-0.032201417,0.002326174,0.092869036,-0.05109226,0.03043266,-0.040371146,-0.036209527,-0.028606566,-0.028833508,0.017787771,-0.018990954,0.01594242,0.06715906,-0.09222424,0.050569378,0.05745237,0.029894985,0.0730967,0.009273029,-0.04001454,-0.057900615,-0.014525261,-0.02170217,0.025820378,-0.008957389,-0.012906745,-0.048433732,-0.09323453,0.0013795092,-0.023367582,0.030802477,0.02731857,0.0017340156,0.0079553975,0.057462003,0.08599111
